[-0.08273344 -0.08685735]
[-0.04770194  0.0354416 ]
[-0.00703675 -0.07850866]
[-0.05404539  0.06189551]
[ 0.01461101 -0.06033227]
[-0.02059341  0.01982373]
[-0.0562275   0.01158518]
[0.07882163 0.08454813]
[-0.0271266  -0.02614991]
[0.04210304 0.04768429]
[-0.06377448 -0.101152  ]
[-0.05076364 -0.03796291]
[0.02296322 0.01207296]
[0.01260708 0.04858864]
[-6.54424431e-06 -8.01617576e-03]
[0.01566728 0.04358925]
[ 0.0143611  -0.02753061]
[-0.07363129 -0.0390849 ]
[ 0.00554413 -0.03756583]
[ 0.01496977 -0.05111137]
[-0.01744494  0.03045887]
[-0.03130884 -0.00211213]
[0.01548867 0.07440699]
[-0.06015033 -0.0739981 ]
[0.04914147 0.05230733]
[0.08911274 0.07884484]
[-0.07987847 -0.0704588 ]
[0.04048729 0.07267164]
[0.06225144 0.03911442]
[0.07665703 0.03477749]
[-0.02396461 -0.00083572]
[0.02076246 0.01000922]
[0.09150977 0.07747321]
[0.00356113 0.0680665 ]
[-0.06749684 -0.07244612]
[-0.0532083  -0.01864343]
[-0.05333608  0.04723509]
[ 0.01452018 -0.04609329]
[-0.06729089 -0.03105714]
[-0.03310802  0.02120552]
[0.0031881  0.05378072]
[0.03800351 0.05416573]
[0.07805738 0.07196797]
[1.17337214e-03 7.20478644e-05]
[ 0.02596012 -0.00909563]
[0.01091662 0.00695615]
[-0.06705777 -0.01113929]
[0.00464099 0.04356639]
[-0.00535927  0.04698597]
[-0.01001235 -0.03761417]
[0.04442268 0.0355694 ]
[-0.08033952 -0.02483989]
[0.05307548 0.06645864]
[-0.04171143  0.03714367]
[0.00302771 0.06704506]
[0.02506539 0.06164699]
[0.02506344 0.0154941 ]
[-0.02812925  0.00261117]
[0.05844626 0.06322086]
[0.0512367  0.03939119]
[0.03253018 0.0049019 ]
[0.01839055 0.00594199]
[-0.02792354 -0.01349364]
[-0.02687413 -0.02935316]
[ 0.01878347 -0.00835014]
[0.07154   0.0587806]
[-0.04497012 -0.0299757 ]
[-0.01366835  0.04186535]
[0.08207783 0.07469022]
[ 0.00932975 -0.02274414]
[-0.01926098  0.0407139 ]
[0.02395391 0.04202124]
[0.02236135 0.03876486]
[0.01616474 0.04181436]
[ 0.01049993 -0.00358636]
[-0.03921061 -0.07860974]
[-0.04766317 -0.06082677]
[ 0.05125199 -0.018366  ]
[0.06534206 0.072022  ]
[0.03370018 0.01788135]
[-0.04937375 -0.02505596]
[-0.03465497 -0.05130263]
[ 0.01217713 -0.03122079]
[0.07771531 0.08747291]
[-0.05136106 -0.07503702]
[-0.03813649 -0.02335413]
[ 0.01308127 -0.02572525]
[-0.02022803  0.04016912]
[-0.00641038  0.01291713]
[-0.05732982 -0.0755435 ]
[ 0.00362516 -0.00502556]
[-0.04307312 -0.0020313 ]
[0.01123424 0.02839525]
[-0.04167391  0.02088858]
[-0.04003728 -0.01168252]
[ 0.01919896 -0.05767367]
[-0.00722632  0.04668329]
[0.05488224 0.0217478 ]
[0.07979802 0.08348483]
[0.0707164  0.06538808]
[-0.05460216  0.00461171]
[0.03268209 0.03006947]
[ 0.01794305 -0.05110575]
[0.05111946 0.049274  ]
[-0.04683218 -0.04981428]
[ 0.0161769  -0.02065675]
[ 0.0539661  -0.00541912]
[0.07281432 0.08182992]
[-0.0565615  -0.05478767]
[0.05751199 0.03106158]
[0.08411192 0.03815704]
[0.08055116 0.02744561]
[-0.01700017 -0.05062907]
[-0.04031613 -0.08329912]
[-0.04322631  0.02443278]
[-0.07442846 -0.04618298]
[0.06852149 0.04248331]
[ 0.00415297 -0.02823718]
[-0.0023844   0.00708074]
[ 0.05956901 -0.02083742]
[-0.05137117 -0.04664764]
[0.03511511 0.00631443]
[-0.06449387 -0.022417  ]
[-0.03173601  0.03384889]
[-0.06002182 -0.0749907 ]
[0.03213093 0.05532364]
[-0.0018652   0.02804009]
[ 0.01135132 -0.00093266]
[0.0750343  0.07764474]
[-0.05880769  0.00714976]
[0.01107149 0.0714386 ]
[-0.04555204 -0.05674701]
[-0.07560745 -0.02237399]
[-0.04231544 -0.00912345]
[0.06046339 0.03948936]
[ 0.03329024 -0.01155714]
[0.04261582 0.01230823]
[0.05041199 0.03968922]
[-0.08080315 -0.07483486]
[-0.0977874  -0.08520107]
[-0.04414661 -0.04146824]
[-0.06773412  0.02426309]
[0.00081424 0.02754356]
[ 0.00110289 -0.02060457]
[-0.01798309  0.00839838]
[ 0.04217091 -0.00105974]
[ 0.02730391 -0.03895447]
[ 0.0324388  -0.05253565]
[-0.0058067  -0.06841773]
[-0.00802768 -0.08364327]
[0.09604796 0.07527121]
[0.07344298 0.06880527]
[-0.08063904 -0.0587033 ]
[-0.05399244  0.01601796]
[0.07337523 0.10577771]
[0.03423744 0.05434714]
[0.04012645 0.02190694]
[-0.07163612 -0.04370771]
[-0.02979458  0.01620811]
[-0.05094065 -0.06684138]
[0.02577833 0.00015695]
[ 0.07852812 -0.02871689]
[-0.01412658 -0.01624935]
[ 0.07487315 -0.01940726]
[-0.02075455  0.00993156]
[ 0.05596947 -0.06200237]
[0.0677342  0.05384532]
[-0.05870426 -0.03142805]
[-0.01785319  0.05494901]
[0.01183924 0.03790964]
[-0.01177025  0.02800275]
[-0.0667686  -0.07334232]
[-0.02092099 -0.00143898]
[0.00847602 0.07825867]
[-0.00090548 -0.06432035]
[0.02347176 0.03715922]
[0.06227931 0.09396036]
[ 0.06233629 -0.03271493]
[-0.09123703 -0.04580458]
[-0.03169868 -0.07047282]
[0.00203974 0.00209638]
[ 0.04606812 -0.04577174]
[ 0.0426007  -0.05415427]
[ 0.01895904 -0.0343177 ]
[-0.09875913 -0.04408525]
[0.01486653 0.017404  ]
[-0.02914939 -0.03210338]
[0.0148035  0.09869036]
[0.02609899 0.05614256]
[0.0725398  0.10297053]
[ 0.01562569 -0.09001884]
[-0.06937053 -0.09883971]
[-0.0255697  -0.00899671]
[ 0.0679329  -0.03926623]
[0.06564343 0.08240906]
[0.07552332 0.01584741]
[0.01638058 0.01274244]
[-0.05582935 -0.07094216]
[0.03305761 0.011375  ]
[-0.00109715 -0.0136962 ]
[-0.10426702 -0.06602269]
[ 0.02611905 -0.01047283]
[ 0.04850171 -0.00757817]
[-0.04222269  0.01474352]
[0.00649698 0.03725286]
[-0.0904558  -0.02207941]
[0.02958737 0.00608626]
[ 0.03540345 -0.0553063 ]
[-0.08676685 -0.00483366]
[ 0.02653724 -0.06201875]
[0.02383476 0.04802086]
[0.0278209  0.04498618]
[-0.00078165 -0.06929817]
[0.03491597 0.03383328]
[0.07595176 0.01995899]
[0.03840377 0.01203583]
[-0.04353696  0.01046691]
[ 0.00923557 -0.00440369]
[ 0.02762068 -0.01744751]
[ 0.0114505  -0.00406579]
[0.01514588 0.02516145]
[0.01836546 0.0138812 ]
[-0.01651843  0.01271398]
[0.0020583  0.00631911]
[ 0.01018407 -0.0170101 ]
[-0.05154384 -0.06584414]
[-0.07664321 -0.0194366 ]
[-0.07870253 -0.09378782]
[0.03168832 0.0631798 ]
[-0.05525914 -0.08229449]
[-0.00610164  0.03109349]
[0.04361793 0.00942189]
[-0.01764959  0.04552399]
[-0.00032592  0.07207835]
[0.02256049 0.01425614]
[-0.0507773   0.07122803]
[-0.07944585 -0.04806699]
[-0.03060167 -0.0023216 ]
[-0.0299735   0.00518758]
[-0.02391396 -0.0095579 ]
[ 0.01346281 -0.02045514]
[0.02956721 0.04040931]
[0.01363772 0.03343149]
[-0.01236656  0.01778431]
[0.0692368  0.00493716]
[ 0.01205587 -0.0443913 ]
[ 0.04323942 -0.0377351 ]
[-0.0238906  -0.03707382]
[-0.04724401  0.04419094]
[-0.02855827  0.00872859]
[-0.02231882 -0.0524257 ]
[-0.07181008 -0.07166135]
[-0.02877137 -0.01733438]
[-0.05496586 -0.05200875]
[ 0.03682933 -0.05800219]
[ 0.06173039 -0.0291564 ]
[-0.01668393 -0.05986599]
[ 0.03821167 -0.04286723]
[0.00850685 0.04508945]
[-0.05337828 -0.00641799]
[-0.03359186  0.02875451]
[ 0.0190426  -0.03914976]
[ 0.03890379 -0.06255546]
[0.05842272 0.02540544]
[0.00087845 0.03151503]
[0.04980734 0.09104369]
[-0.06298328 -0.08064098]
[0.08076823 0.07759171]
[0.02562629 0.02348164]
[0.03620124 0.06129592]
[-0.00092426  0.02996395]
[0.04788833 0.02487877]
[-0.00568346  0.02551825]
[-0.06681358  0.02241548]
[ 0.04820325 -0.02105679]
[-0.06672494 -0.06506482]
[-0.01117742  0.04820246]
[ 0.00012051 -0.03414489]
[-0.0584292  -0.05587097]
[ 0.0124763  -0.02487438]
[-0.01190365 -0.0078009 ]
[0.04950989 0.00138681]
[-0.01663152  0.0207656 ]
[-0.04869424 -0.01356019]
[-0.02547251  0.01379677]
[0.04649525 0.01851465]
[0.04728946 0.00099516]
[-0.00175905 -0.04062689]
[0.01316194 0.05529676]
[0.02817161 0.04627911]
[-0.0034442   0.00399545]
[ 0.03929883 -0.05715747]
[0.03414562 0.06906135]
[-0.01352594 -0.04400889]
[ 0.04122082 -0.02130512]
[0.032024  0.0161734]
[0.06132831 0.05330629]
[ 0.03417857 -0.0649964 ]
[ 0.05903627 -0.04562534]
[-0.00294749  0.05660387]
[-0.05479635  0.02113017]
[0.05073266 0.00947583]
[-0.02162843  0.03331537]
[-0.02059278 -0.0569671 ]
[0.0847217  0.08004209]
[0.00705929 0.06259024]
[-0.00727559  0.02768418]
[-0.01690707 -0.0023464 ]
[-0.02650498  0.0574131 ]
[-0.04942258 -0.07104237]
[-0.08088944 -0.08742902]
[0.02975881 0.02633   ]
[0.04368433 0.01664733]
[0.05789961 0.03961744]
[0.03600793 0.00085834]
[ 0.01120262 -0.04568963]
[-0.04717735 -0.05393773]
[-0.03202992 -0.03795888]
[0.0086823  0.06774657]
[0.00655028 0.05401177]
[ 0.00777201 -0.00549258]
[0.05837472 0.03703953]
[-0.01686812  0.02584587]
[-0.021216   -0.02069407]
[-0.01102751  0.01655667]
[-0.01680573  0.03219136]
[-0.03311781  0.00099984]
[0.00861485 0.06004073]
[ 0.03434922 -0.01979505]
[0.03616979 0.06054091]
[0.02190483 0.05169227]
[-0.02500748  0.0025719 ]
[ 0.01132989 -0.029198  ]
[-0.07210253 -0.04179918]
[0.0548766 0.0014254]
[ 0.02174039 -0.03084427]
[-0.0415365  -0.06115339]
[0.03834726 0.04486843]
[ 0.02302153 -0.03464286]
[ 0.00716464 -0.02323311]
[-0.0166428  -0.02404296]
[-0.04419754 -0.07320992]
[0.02428623 0.04350641]
[0.02460304 0.02777725]
[-0.06265378 -0.07346872]
[0.02138176 0.05651979]
[-0.04824335 -0.02239814]
[-0.00235678 -0.01239892]
[-0.05955886 -0.03965086]
[-0.01051418  0.03179565]
[0.0384136  0.00698068]
[-0.00631155 -0.04319223]
[-0.00050352 -0.0381844 ]
[0.06386323 0.04238664]
[ 0.00301417 -0.0513691 ]
[0.01257794 0.07885419]
[0.08264729 0.03602967]
[-0.0353502  -0.00647945]
[-0.00226769  0.00913328]
[-0.0117703   0.01723175]
[0.06825398 0.0519642 ]
[0.03402551 0.06678743]
[-0.03208461  0.04330191]
[-0.07056597 -0.07893601]
[-0.0345756  -0.05937209]
[-0.00320106 -0.06246635]
[-0.05960374 -0.07126414]
[0.03981794 0.03457716]
[-0.02381878 -0.06282625]
[ 0.02367102 -0.00619419]
[0.04634645 0.01029397]
[-0.02595363 -0.06321431]
[ 0.02438701 -0.0254093 ]
[-0.04697661 -0.02040571]
[-0.02967519  0.00012649]
[0.05316667 0.01560561]
[0.03626898 0.02916657]
[ 0.06176174 -0.01294495]
[-0.00852113  0.03982871]
[-0.03267411  0.03153165]
[ 0.00877254 -0.02221851]
[ 0.05926273 -0.04857974]
[-0.02562478 -0.06481453]
[-0.01417067 -0.03550048]
[0.05799074 0.06438583]
[0.04565442 0.01969334]
[0.06347997 0.03370595]
[-0.02086068  0.025536  ]
[-0.04634444 -0.0496187 ]
[-0.04092303  0.01474604]
[-0.02405154  0.00922991]
[0.04681442 0.03590893]
[-0.00623615 -0.05816728]
[-0.05539076 -0.0465796 ]
[-0.06284794 -0.07377057]
[0.04833397 0.04555455]
[-0.03280512 -0.01071009]
[0.03509138 0.02031474]
[-0.08877924 -0.06585883]
[-0.00426354  0.04349971]
[-0.01720047  0.00909106]
[-0.04727468 -0.05128743]
[-0.06307446 -0.05385062]
[-0.01967177  0.02775705]
[-0.07641178 -0.07888374]
[-0.09559757 -0.07832798]
[0.00585316 0.00503607]
[-0.02528661  0.00107427]
[0.09678061 0.06880878]
[0.05948631 0.06409004]
[-0.07694416 -0.10104341]
[ 0.00059551 -0.03596077]
[0.06099317 0.02437023]
[0.02810703 0.05887487]
[0.00673533 0.05799856]
[-0.05073367 -0.04378804]
[-0.01579018 -0.00902469]
[-0.04478652  0.02309809]
[-0.06993675 -0.08268454]
[ 0.04039892 -0.01898683]
[-0.00795963 -0.00053115]
[-0.00910125 -0.07053358]
[0.07728958 0.08776273]
[ 0.03596633 -0.0167045 ]
[-0.01230341 -0.01424389]
[0.03761401 0.06820014]
[-0.0135483  0.0096482]
[-0.01046172  0.03055061]
[0.00087384 0.04225362]
[0.05275724 0.05011072]
[-0.02042964 -0.04352166]
[-0.07056372 -0.0567755 ]
[-0.05557227  0.00176588]
[0.01540589 0.00475848]
[0.04567734 0.01508216]
[-0.09359028 -0.07147911]
[-0.0528485  -0.04133546]
[-0.05404181 -0.01447224]
[0.00285764 0.02304677]
[0.00223114 0.05378007]
[-0.03848453 -0.06762296]
[0.06511039 0.04074355]
[0.06920066 0.08575509]
[-0.07705251 -0.06575065]
[-0.06183046 -0.04116928]
[ 0.02911678 -0.04002616]
[-0.02371835 -0.05655064]
[0.055833   0.06702855]
[-0.06545995 -0.02859371]
[-0.02479195  0.06316892]
[0.0731101  0.03845523]
[0.05889798 0.00477177]
[ 0.06936753 -0.00287839]
[-0.0062446   0.04157312]
[-0.00431652 -0.04585755]
[0.0584676  0.05589343]
[0.02426623 0.04319412]
[-0.03039377  0.00117937]
[ 0.03417338 -0.06042681]
[-0.03450218  0.02909347]
[0.02667463 0.00325211]
[-0.05005729 -0.04126885]
[0.04704338 0.01182704]
[-0.03873944  0.03102251]
[-0.02671031  0.03263199]
[0.057009   0.01669528]
[0.01945789 0.00568854]
[0.03417732 0.06179528]
[-0.01679861  0.0499776 ]
[-0.01434389 -0.04909743]
[-0.04039557  0.00499228]
[-0.05881939 -0.06700823]
[-0.0260101   0.02735414]
[0.04202287 0.07112728]
[-0.01306484  0.00132571]
[0.02068024 0.02225768]
[-0.04760926  0.00950814]
[0.06837654 0.02820117]
[-0.03665436  0.02575075]
[-0.07362362 -0.05926137]
[0.06127765 0.03991708]
[0.06624455 0.02572792]
[0.06719339 0.07321894]
[-0.0511092  -0.06010257]
[ 0.03306638 -0.00073629]
[-0.04376615 -0.01292198]
[-0.07715631 -0.07559361]
[ 0.02135116 -0.06127157]
[-0.0567837  -0.07827197]
[0.08895787 0.02694512]
[-0.01075803  0.05522317]
[ 0.0028306  -0.01046826]
[-0.00275052 -0.02684765]
[-0.041008   -0.02360342]
[-0.03826329  0.00406235]
[ 0.01261284 -0.05905417]
[0.08040776 0.06442304]
[0.05850985 0.05305086]
[-0.06277701 -0.02487154]
[0.00044479 0.02318433]
[0.00158115 0.02902898]
[0.03933751 0.03642126]
[ 0.00673927 -0.05282298]
[0.0604192  0.04795046]
[ 0.03828368 -0.01070935]
[-0.05511557 -0.03132883]
[-0.01401416  0.04122248]
[0.03266499 0.04204054]
[-0.0349656  -0.05961327]
[-0.07073348 -0.03157809]
[-0.02556192  0.02848078]
[0.02754686 0.03014939]
[-0.0296472  -0.05449607]
[-0.0427088  -0.01795526]
[-0.07518197 -0.08000449]
[0.05030648 0.04055641]
[-0.00952729  0.04430447]
[0.01951273 0.039113  ]
[0.03576653 0.01185368]
[-0.04086879 -0.01307639]
[0.03665146 0.00323382]
[0.07386751 0.08207067]
[-0.02205864  0.02464243]
[ 0.03631694 -0.04133337]
[ 0.02543364 -0.01154819]
[0.05752952 0.04584802]
[-0.03714146 -0.06371559]
[0.04188503 0.05474677]
[0.04628202 0.04373578]
[0.07710387 0.03214106]
[-0.06273197 -0.01183533]
[0.00516239 0.06057581]
[-0.00163831  0.07622578]
[-0.00389177 -0.05789144]
[-0.05850845 -0.0525156 ]
[-0.04213677 -0.00627571]
[0.00937067 0.07159642]
[ 0.04196236 -0.02612403]
[-0.02709338 -0.00161423]
[0.01354147 0.05472099]
[-0.01964937  0.00108686]
[-0.0249256   0.05948676]
[-0.04618588  0.01486457]
[-0.03086642  0.00571148]
[-0.01315799  0.0790424 ]
[-0.0669714  -0.07096019]
[0.04801165 0.04655811]
[-0.03763911 -0.10035874]
[-0.06708425 -0.05831547]
[-0.00689137  0.02684264]
[0.08195375 0.03272301]
[0.01939661 0.04013013]
[-0.02057454 -0.00756245]
[-0.02699896  0.06706774]
[-0.03205492  0.00802895]
[-0.04325962  0.07114054]
[-0.04064484 -0.02318752]
[-0.00097724 -0.01732978]
[-0.03026122  0.02129931]
[0.05378802 0.01314327]
[-0.05380598  0.02703372]
[ 0.02601279 -0.03282783]
[-0.06039584  0.05000142]
[0.02366994 0.02109595]
[-0.04456798  0.01362314]
[ 0.00228382 -0.04010466]
[-0.04608333 -0.07972066]
[-0.052557   -0.07100302]
[0.02294452 0.04839958]
[-0.01054245 -0.05329871]
[0.01769033 0.0186212 ]
[-0.07398003 -0.04485898]
[-0.04758029  0.05342888]
[0.07562882 0.10363706]
[0.00849463 0.01702417]
[0.03953934 0.03304006]
[-0.0152216   0.02995725]
[ 0.04334271 -0.0658431 ]
[-0.01911661 -0.0002853 ]
[0.05576778 0.05685409]
[-0.03556872 -0.00727209]
[0.07214929 0.01499379]
[ 0.02094732 -0.00437951]
[-0.01152293 -0.08045412]
[-0.03851402 -0.00447344]
[-0.04780377  0.07655252]
[0.01917451 0.03851755]
[0.01412423 0.04360148]
[0.02497162 0.10124695]
[ 0.01466694 -0.00865523]
[-0.02723172 -0.10581842]
[ 0.07866056 -0.03564918]
[-0.02204782 -0.02790637]
[-0.03687322 -0.02040771]
[-0.09178485 -0.00944974]
[ 0.02284944 -0.04741106]
[-0.00045663  0.01899033]
[0.01690434 0.00047178]
[0.05875001 0.01440711]
[ 0.02027393 -0.0363597 ]
[0.02336101 0.08640871]
[0.02042093 0.09487481]
[-0.01934865  0.05547237]
[-0.08463164  0.04509774]
[-0.04914774 -0.04613264]
[-0.06151079  0.02391726]
[ 0.04718045 -0.08296936]
[0.04055601 0.02945359]
[0.01885079 0.09735522]
[-0.07219011 -0.0575023 ]
[0.05689597 0.07995256]
[0.0493109  0.03723079]
[0.06936564 0.10438713]
[ 0.06617745 -0.03854349]
[-0.05727611 -0.11392215]
[-0.03785652  0.0351693 ]
[-0.05873667  0.04603742]
[0.01777881 0.01676722]
[-0.04308645 -0.01684502]
[-0.04311664  0.07608802]
[-0.01862559 -0.03106074]
[-0.0395136  -0.01192189]
[-0.04062283  0.02335244]
[ 0.04874524 -0.02859715]
[0.0188959  0.00534348]
[-0.01184323  0.05904154]
[0.05430243 0.04579187]
[0.10610348 0.06188285]
[-0.00815497 -0.01368876]
[ 0.04959985 -0.01640025]
[0.05992272 0.0592011 ]
[ 0.04551927 -0.02388074]
[-0.09610739 -0.04911185]
[-0.00849803 -0.00271112]
[0.05355545 0.09321695]
[-0.05029326  0.05787957]
[0.06941728 0.11395583]
[-0.11663571 -0.06427507]
[-0.07182049 -0.0644838 ]
[-0.06685104 -0.06323678]
[-0.01878832  0.08072702]
[-0.01259374 -0.03636839]
[0.00072994 0.02854269]
[-0.03898139  0.01284286]
[0.07232388 0.06691525]
[ 0.06390047 -0.00943063]
[-0.0119505  -0.07897216]
[-0.00898546  0.04841094]
[-0.0205105   0.05891452]
[0.07013854 0.09247281]
[-0.04828325  0.05545759]
[-0.00129445 -0.03018092]
[-0.05684044 -0.04215262]
[-0.04344284 -0.05093254]
[-0.04859529 -0.07890174]
[0.03808305 0.01488299]
[ 0.04009071 -0.01649927]
[ 0.00476972 -0.07196187]
[0.01595552 0.05992947]
[ 0.06113583 -0.06233593]
[-0.05513166 -0.04953011]
[-0.08333304 -0.10512495]
[-0.01139449 -0.08147002]
[-0.02823981  0.01190035]
[-0.04725213 -0.03987852]
[ 0.00758612 -0.01337   ]
[0.02182766 0.01790174]
[ 0.01002567 -0.01270494]
[-0.05771214 -0.05823765]
[0.06845321 0.07993004]
[ 0.06373845 -0.03905664]
[0.08990292 0.08387887]
[-0.04263781 -0.04572644]
[-0.00463317 -0.04802267]
[-0.02427993 -0.05023632]
[0.07245923 0.01578088]
[0.0868556  0.03491629]
[0.03436379 0.05603842]
[-0.0443224  -0.00057367]
[ 0.0205354  -0.00138976]
[-0.06755141 -0.02203262]
[0.00944219 0.04493396]
[-0.04261796 -0.02776377]
[-0.02785593  0.01317905]
[ 0.04563162 -0.01216903]
[ 0.03250417 -0.02201711]
[-0.08204621 -0.07859533]
[0.08532676 0.07941228]
[-0.00449439  0.0518993 ]
[0.05455778 0.00235928]
[-0.00232296  0.02190348]
[-0.07770493 -0.08773229]
[-0.04985976 -0.09394911]
[0.0295706  0.01562294]
[-0.01236773  0.03273783]
[-0.06973427 -0.05213252]
[-0.04624802 -0.05610284]
[-0.04334799  0.03493096]
[-0.05858877  0.01296857]
[-0.07916586 -0.09461416]
[0.02732334 0.06555212]
[ 0.04490347 -0.00512186]
[-0.05919902  0.02480266]
[0.06640449 0.06849012]
[0.04356838 0.05191671]
[0.05647544 0.0137902 ]
[ 0.0134329  -0.00064161]
[0.0364695  0.03850865]
[0.02129447 0.04846188]
[0.02192092 0.04420667]
[-0.04346373 -0.06446828]
[0.07997589 0.06238613]
[-0.02537071 -0.00642389]
[ 0.05917315 -0.05196992]
[-0.05003894 -0.00942726]
[-0.02980508  0.02774057]
[0.01088219 0.03598593]
[-0.07658058 -0.08500002]
[ 0.01066587 -0.0036954 ]
[-0.06543342 -0.04290329]
[ 0.01433587 -0.0419895 ]
[0.07884092 0.09027418]
[0.08280234 0.05552868]
[-0.00814299  0.03815051]
[-0.03096786 -0.04855132]
[0.02084843 0.01930026]
[ 0.0331237  -0.00647135]
[0.05300077 0.08843956]
[-0.06991638 -0.03465921]
[0.04312732 0.05694539]
[-0.02929734  0.03727707]
[0.00387464 0.04745324]
[-0.09529118 -0.08208844]
[0.08466072 0.03352176]
[-0.03801612 -0.04461457]
[-0.00327135 -0.05935341]
[-0.03644745 -0.03653393]
[0.02175144 0.02990319]
[0.07841962 0.07630749]
[0.02089705 0.02682928]
[0.00773082 0.06533479]
[-0.02920841  0.0390416 ]
[-0.0370753   0.00897574]
[ 0.01348156 -0.02977437]
[-0.03678569 -0.02797057]
[0.06104667 0.035809  ]
[-0.02970507  0.03364818]
[0.02804284 0.05724   ]
[-0.01797629 -0.05437661]
[-0.0158657  0.0272059]
[0.03573078 0.0844426 ]
[-0.02727144 -0.00129908]
[0.03431702 0.01462077]
[-0.04528098 -0.02306216]
[-0.01645169  0.03519697]
[ 0.04466109 -0.03401144]
[ 0.03184362 -0.0230349 ]
[-0.00283587 -0.02045112]
[ 0.00870654 -0.00427559]
[-0.00976986  0.05108667]
[0.07270658 0.0385032 ]
[-0.02090465  0.05168198]
[0.06431439 0.03599428]
[-0.0182334   0.02660897]
[-0.02460001 -0.00105681]
[0.04839878 0.04222582]
[-0.00968131  0.03969933]
[0.06413031 0.03394087]
[-0.0654144  -0.09070846]
[-0.07709811 -0.06730389]
[-0.03158729  0.01253365]
[-0.08974149 -0.05406453]
[0.08533684 0.08518021]
[0.0416584  0.07467366]
[-0.05437315  0.05277801]
[-0.01894698  0.04100076]
[0.06771061 0.06641493]
[0.01817111 0.05966793]
[-0.00397042  0.04243811]
[0.0571991  0.06371381]
[-0.05082232  0.00238442]
[0.00843902 0.00315663]
[-0.05673766 -0.02605258]
[-0.04969546 -0.05655851]
[0.05665799 0.00375317]
[-0.0670068   0.03904161]
[0.02969299 0.02491438]
[-0.02082487  0.00389279]
[ 0.0752062  -0.07230832]
[0.07348823 0.09923554]
[-0.05349234 -0.02543094]
[-0.01436282 -0.02620005]
[ 0.03558112 -0.02415271]
[0.001504   0.03984039]
[0.0745738  0.01308575]
[ 0.06855318 -0.02547887]
[0.07074397 0.01557084]
[-0.04161843 -0.09110432]
[0.05617915 0.03473976]
[0.03247876 0.04259977]
[ 0.0098508  -0.05500994]
[0.08171281 0.08766452]
[0.03607517 0.06710701]
[-0.0388307   0.01545113]
[-0.00366992  0.0085671 ]
[-0.00754362  0.03154176]
[-0.09498382 -0.08268347]
[-0.07980743 -0.08022229]
[0.01745933 0.05268877]
[-0.04578607 -0.00254424]
[-0.00104144 -0.02278578]
[-0.05227664 -0.0639647 ]
[-0.04897492  0.00037202]
[ 0.02741105 -0.00788905]
[ 0.0049248  -0.03914171]
[0.08260258 0.0746666 ]
[ 0.01944175 -0.01186838]
[-0.0146001  -0.00565577]
[0.08849083 0.07128452]
[0.00026117 0.0062273 ]
[0.08310464 0.08182902]
[0.0415691  0.03597191]
[-0.0044331   0.05836375]
[0.04677894 0.03098265]
[0.07161414 0.07188568]
[ 0.03463643 -0.0468156 ]
[0.02931478 0.05804236]
[ 0.0401426  -0.00183359]
[ 0.04689437 -0.00116366]
[0.00370031 0.05386184]
[0.06935232 0.07245876]
[-0.07408028 -0.04764892]
[-0.04743189 -0.04627671]
[0.04600416 0.04641191]
[-0.01334099 -0.02124424]
[0.00885846 0.01482142]
[0.01737442 0.01583691]
[0.00275076 0.03072259]
[-0.03046084  0.01185363]
[ 0.04617515 -0.05338477]
[ 0.0048058  -0.03833459]
[0.01356652 0.02057418]
[-0.01356886  0.04492706]
[ 0.00461606 -0.03381462]
[ 0.0083032  -0.03317534]
[-0.01487962 -0.0550841 ]
[-0.00435274 -0.02885443]
[0.03457689 0.03848186]
[0.01491077 0.02143063]
[0.05879041 0.06537081]
[ 0.01859065 -0.00443376]
[-0.00087256  0.05741208]
[ 0.02415198 -0.04657863]
[0.03673295 0.05817509]
[-0.03332307  0.0325646 ]
[0.04405833 0.01985038]
[-0.08540905 -0.07757368]
[ 0.04539879 -0.0520401 ]
[-0.01046464  0.00877232]
[-0.02071552  0.05632108]
[-0.04794555 -0.01292357]
[ 0.00260038 -0.03280012]
[-0.01384026  0.00530376]
[0.0401541  0.04007453]
[-0.00266794  0.02956646]
[-0.01000854  0.00582635]
[ 0.00688707 -0.03893438]
[0.04459245 0.03359053]
[ 0.07552493 -0.03498172]
[0.02878399 0.04359766]
[0.02762388 0.03785457]
[-0.00481977  0.02441573]
[ 0.04706957 -0.01782135]
[0.07009461 0.08528605]
[-0.08066568 -0.07337866]
[-0.04648036  0.02344045]
[-0.02588874  0.04181477]
[0.00511621 0.05384675]
[-0.04829601 -0.02581403]
[0.05738078 0.03063554]
[-0.00760342  0.00256499]
[ 0.01010084 -0.00725989]
[-0.0634669  -0.07502816]
[-0.07753298 -0.08172324]
[0.02428007 0.05699941]
[-0.04176444 -0.07134952]
[-0.00668437  0.01223082]
[0.00093609 0.04628885]
[0.0817798  0.08057961]
[0.03303792 0.00182177]
[ 0.00780844 -0.06858517]
[ 0.05643507 -0.02552398]
[0.07077383 0.07190023]
[ 0.03215135 -0.01833621]
[-0.04556014 -0.02484896]
[0.05021821 0.00973193]
[ 0.05906313 -0.00144324]
[0.0357433  0.08427494]
[-0.00124425 -0.0609636 ]
[-0.01296098 -0.02737733]
[-0.00270062 -0.03391383]
[-0.04369383  0.00180388]
[0.05067052 0.05902929]
[-0.04283013  0.02903049]
[0.04901549 0.04564824]
[-0.05494521 -0.05178622]
[-0.01126042  0.0033196 ]
[-0.0048223  -0.00619813]
[0.06466987 0.07731874]
[0.06689699 0.07201409]
[0.02969266 0.07731632]
[0.02554572 0.01655269]
[-0.02259149  0.02269188]
[-0.08458919 -0.07810839]
[-0.0496438   0.00673249]
[-0.05523955 -0.04146457]
[-0.08113869 -0.06325211]
[0.07056287 0.02410987]
[-0.04119068 -0.02399271]
[0.08548096 0.07635812]
[-0.02926667 -0.03554665]
[ 0.02892392 -0.02848108]
[-0.06098663 -0.07134963]
[0.05212412 0.01028449]
[0.0180806  0.04161884]
[0.03154852 0.01725089]
[-0.0331371   0.03570918]
[-0.04729586  0.04284111]
[0.02282575 0.06764757]
[ 0.00694633 -0.03490132]
[-0.03546815  0.00127865]
[ 0.06504553 -0.03573077]
[-0.01174572 -0.01751698]
[0.06821969 0.04629868]
[-0.01623793 -0.05802559]
[-0.07950226 -0.0673502 ]
[-0.03131416  0.00555211]
[ 0.04080391 -0.04054103]
[0.0725177  0.05575421]
[0.05402983 0.09093917]
[-0.02535451  0.01489136]
[0.02287027 0.01554734]
[-0.03793106 -0.08116954]
[-0.00958809  0.02034509]
[0.02248177 0.06594091]
[-0.00511853 -0.04503736]
[-0.00316829 -0.01043822]
[-0.04233632  0.0289083 ]
[-0.02458969 -0.00611024]
[0.07807972 0.05986231]
[-0.06371504 -0.08724164]
[-0.03062484 -0.05521882]
[0.00938334 0.05460758]
[0.05696076 0.03299971]
[-0.06217027 -0.05249645]
[ 0.01487476 -0.01875385]
[0.01023548 0.04751885]
[-0.06931511 -0.05013484]
[-0.07353969 -0.0889994 ]
[ 0.03674772 -0.04553275]
[-0.07510685 -0.0736127 ]
[ 0.02280259 -0.04119063]
[-0.04824719 -0.04117423]
[-0.00654929 -0.03311976]
[-0.01807712 -0.00276153]
[-0.02567378  0.00074114]
[-0.03957758 -0.04812274]
[-0.03158919 -0.053818  ]
[0.00893516 0.02910634]
[-0.06161158 -0.00654412]
[-0.02341573  0.03222335]
[-0.0419093   0.05612597]
[-0.01378496  0.0191548 ]
[-0.06425742 -0.04777428]
[0.02838436 0.06234434]
[-0.05374691 -0.06297936]
[0.02896295 0.06412067]
[-0.03913216 -0.04218664]
[-0.02834528  0.03289229]
[0.06552441 0.04980341]
[ 0.00543288 -0.02181417]
[0.10201932 0.03936387]
[-0.01961413 -0.05791645]
[ 0.05169104 -0.05024168]
[-0.01304159 -0.0047237 ]
[0.03244181 0.00590295]
[ 0.00676723 -0.02161043]
[-0.00921556  0.06622366]
[-0.05791809 -0.03036946]
[0.01582169 0.06463992]
[-0.02122682 -0.03246228]
[0.09151158 0.06297533]
[0.01909433 0.04052331]
[0.06619235 0.07881304]
[-0.09865186 -0.02140107]
[0.03821845 0.02084811]
[-0.08453873 -0.01801572]
[-0.01639173 -0.04298202]
[0.02857766 0.00302111]
[0.02003222 0.00330865]
[-0.01103747  0.01319192]
[-0.10393835 -0.05616309]
[-0.05734186 -0.04922118]
[5.69238006e-05 4.19757462e-02]
[-0.02637817 -0.00943339]
[-0.00957094 -0.02172075]
[-0.05508205  0.00324665]
[0.0138525 0.0144166]
[-0.08310127 -0.0673661 ]
[-0.01028511  0.02510613]
[-0.08753139 -0.05273809]
[0.01073045 0.00428992]
[ 0.0199818  -0.04800994]
[ 0.02336897 -0.02097215]
[ 0.02886306 -0.05413292]
[ 0.00094277 -0.06092649]
[-0.09025902 -0.00861473]
[-0.05294349  0.01744772]
[0.00845829 0.05384575]
[-0.01188241  0.08836482]
[-0.01902179  0.01782941]
[0.02237708 0.04204908]
[-0.01574137 -0.01391661]
[-0.04335991 -0.04009573]
[-0.08948506 -0.01201677]
[-0.03258771 -0.0071743 ]
[-0.07792839 -0.00519983]
[-0.01185316 -0.01404913]
[0.02930134 0.0053202 ]
[ 0.02528088 -0.04486752]
[ 0.0769025  -0.02860698]
[ 0.06450839 -0.03289876]
[-0.00201149  0.06575976]
[0.0340976  0.05033609]
[-0.00541603  0.04433915]
[0.05023772 0.02202334]
[-0.045679   -0.03552079]
[-0.03182072  0.00342305]
[ 0.05172052 -0.05058149]
[0.04051386 0.01480789]
[-0.02058676 -0.05214957]
[-0.06738079 -0.04647309]
[-0.07148303  0.006289  ]
[0.06823775 0.01520751]
[0.0069833 0.0247947]
[-0.02624342 -0.03997389]
[0.04634349 0.03048777]
[-0.04722328 -0.04695258]
[ 0.0171671 -0.0003988]
[-0.09266672 -0.06653971]
[-0.05501499 -0.00718957]
[0.02743068 0.07563831]
[0.03318629 0.00875317]
[ 0.01147934 -0.00431772]
[-0.01661097 -0.05112834]
[-0.02043409 -0.05388463]
[-0.05065116 -0.06116767]
[0.07573628 0.01766397]
[0.06755372 0.06629844]
[0.0094068  0.03305871]
[ 0.005285  -0.0189287]
[0.02314852 0.02364578]
[-0.04648803 -0.08994469]
[-0.01777225  0.03077391]
[0.06188778 0.04917707]
[-0.05096338  0.02903895]
[0.00740266 0.04875223]
[0.06334409 0.09788656]
[0.03502711 0.06673204]
[0.04307691 0.05086094]
[0.08208998 0.07426878]
[ 0.06191368 -0.00234843]
[-0.04704128  0.02976028]
[0.00492048 0.01128107]
[ 0.01867893 -0.04724702]
[ 0.04244181 -0.05992293]
[0.03472225 0.02141356]
[ 0.02400669 -0.02084082]
[-0.02753125 -0.01549463]
[0.05899776 0.0312248 ]
[ 0.02109266 -0.00018704]
[0.08573502 0.05719729]
[-0.02159067  0.02327738]
[0.01966318 0.06567135]
[-0.05596886 -0.06740683]
[-0.05261923 -0.03171712]
[ 0.04959143 -0.02461048]
[0.02655478 0.02342735]
[-0.04115217 -0.06717137]
[ 0.03120165 -0.02308977]
[-0.02608456 -0.01877589]
[ 0.00588409 -0.05589691]
[-0.0030482  -0.08388945]
[0.08372003 0.03257322]
[-0.0358933  -0.05793426]
[0.04771876 0.07281859]
[-0.00862792  0.0255481 ]
[-0.01038107  0.05932576]
[0.03743504 0.02803123]
[ 0.05762283 -0.01766741]
[0.06678781 0.05355193]
[0.04285726 0.02574231]
[0.059996   0.04644129]
[-0.04541572 -0.00277031]
[-0.00847996  0.04751977]
[-0.06394115 -0.0392691 ]
[-0.06883123 -0.032122  ]
[0.01241194 0.01381783]
[ 0.0675971  -0.01703884]
[0.01437915 0.04537405]
[0.01324207 0.03292238]
[-0.04085859 -0.00597528]
[-0.00193106 -0.04719965]
[-0.08416779 -0.08656827]
[-0.02161716 -0.07808527]
[ 0.00479887 -0.06004056]
[-0.04204057 -0.02246853]
[-0.06602714 -0.05669711]
[-0.05576474  0.05698979]
[ 0.00251823 -0.00453274]
[-0.06495437 -0.05177221]
[0.00532929 0.07138308]
[-0.01421837 -0.00712442]
[ 0.00984089 -0.03961502]
[0.02206422 0.03638861]
[-0.05711128 -0.00236586]
[-0.10529198 -0.08808669]
[-0.06893348 -0.02288071]
[0.06185356 0.00439874]
[-0.04480697  0.03208399]
[-0.00298247 -0.02937084]
[0.10319463 0.0770642 ]
[-0.05331524 -0.05440259]
[0.03420566 0.05207973]
[-0.02797031  0.01260041]
[-0.06958318 -0.05904907]
[ 0.02985676 -0.04757003]
[-0.03037367  0.02145405]
[-0.08733498 -0.10320828]
[-0.05047751 -0.02469267]
[-0.0033843   0.03726564]
[-0.07540974 -0.04571502]
[-0.00716693 -0.03657662]
[0.05458403 0.04607658]
[-0.07273172 -0.06259011]
[ 0.04345468 -0.01367369]
[0.02384874 0.05053628]
[-0.02699494  0.04735821]
[-0.08192968 -0.08965633]
[-0.01701714  0.02298185]
[-0.00985597  0.03168076]
[-0.06909222 -0.06269917]
[0.02013153 0.03209687]
[0.00828783 0.05812988]
[ 0.01201571 -0.0301153 ]
[-0.05016613 -0.02804408]
[0.0649995  0.07391124]
[ 0.0356719  -0.01096854]
[-0.01250674  0.01727134]
[-0.00246087 -0.01031725]
[-0.0389799   0.00171301]
[-0.04496504  0.03580756]
[0.07087153 0.04350832]
[0.01054099 0.02657324]
[0.00302831 0.0354683 ]
[ 0.02409095 -0.03570181]
[-0.04201466 -0.0256252 ]
[-0.01121023 -0.0026266 ]
[-0.05390573 -0.00576284]
[-0.05286155 -0.02351959]
[-0.01634607 -0.02373004]
[-0.03521241 -0.05207032]
[-0.06105869 -0.01506397]
[-0.01295083 -0.03877582]
[-0.05843879 -0.03809744]
[ 0.03143042 -0.03459596]
[0.01000301 0.0140527 ]
[-0.02930439 -0.03188815]
[0.07712008 0.02537111]
[ 0.03329999 -0.00460572]
[0.02292039 0.02745976]
[-0.05905302 -0.04497621]
[-0.02634261 -0.05600625]
[-0.03064221 -0.0511148 ]
[ 0.0504397  -0.01264437]
[-0.04966401 -0.02334184]
[ 0.01958855 -0.06985134]
[-0.04446897  0.0194762 ]
[0.05051927 0.02348291]
[ 0.02935874 -0.01975899]
[0.03626562 0.08789596]
[-0.07087342 -0.05022585]
[ 0.00124455 -0.02308377]
[ 0.02255376 -0.07291242]
[-0.03377343  0.00917392]
[0.10363104 0.07640277]
[ 0.03501395 -0.02925188]
[-0.07274859 -0.08361268]
[0.01076029 0.074245  ]
[0.01501674 0.04768469]
[-0.02142606  0.03173907]
[-0.06459555 -0.08696667]
[-0.00584683  0.00116592]
[ 0.05133871 -0.03883954]
[-0.04662684 -0.07756813]
[-0.02104028 -0.04306957]
[-0.00624706 -0.02144153]
[0.08495439 0.05868077]
[ 0.02271373 -0.02461127]
[ 0.00398608 -0.04601554]
[ 0.03164827 -0.05499667]
[-0.06158763 -0.04205211]
[-0.03020026 -0.03393694]
[-0.07992095 -0.07712037]
[-0.00577332  0.05952084]
[-0.02330859  0.01424596]
[-0.05959999 -0.08131423]
[-0.09282512 -0.07342325]
[0.0038579  0.03973915]
[ 0.02584146 -0.00960059]
[0.01279249 0.04585011]
[ 0.0435099  -0.01184597]
[-0.09056668 -0.09919414]
[ 0.02598607 -0.02389814]
[-0.03059491 -0.03470168]
[0.05005011 0.02004799]
[-0.0075105  -0.02944155]
[-0.02211498 -0.07509245]
[-0.04418779 -0.03060061]
[-0.06307836 -0.06294102]
[0.01608029 0.04597177]
[0.0626842  0.02529345]
[ 0.00318391 -0.02626115]
[-0.07687284 -0.06692092]
[0.04644933 0.04691672]
[-0.05529751 -0.02612041]
[ 0.00450536 -0.06062011]
[0.05111629 0.02995594]
[0.02949914 0.03378682]
[0.07246475 0.03745076]
[0.04408228 0.0125427 ]
[0.04668717 0.06925893]
[ 0.01969973 -0.02625343]
[ 0.01057936 -0.01632655]
[-0.02094558  0.00745993]
[-0.04921824 -0.02136932]
[0.05922625 0.00668346]
[-0.04278062 -0.02565907]
[0.0679307  0.06878441]
[ 0.02554148 -0.05768572]
[-0.0106012   0.06398442]
[-0.06258754 -0.0154579 ]
[ 0.03507572 -0.05262771]
[0.02587036 0.00422756]
[-0.02776325  0.04234725]
[-0.04669951  0.01080756]
[0.0399146  0.02078535]
[ 0.00660222 -0.05704082]
[-0.02603578  0.00503562]
[0.00374899 0.00813297]
[ 0.02520387 -0.01676852]
[0.05479926 0.00249045]
[0.06638641 0.04571491]
[0.04240435 0.01856984]
[-0.00135899 -0.02689329]
[-0.06808461 -0.02927807]
[-0.06105348 -0.08937817]
[-0.0529228  -0.05598462]
[ 0.04587892 -0.05452555]
[-0.02329803  0.00088329]
[ 0.04385921 -0.00972234]
[-0.05961387  0.05597499]
[ 0.01254048 -0.01396381]
[-0.00260512  0.01693099]
[0.00316509 0.04650619]
[0.06125024 0.07485242]
[-0.00176424  0.05941216]
[0.00475253 0.01953212]
[0.05288188 0.05631516]
[-0.01350566 -0.01765327]
[0.05804135 0.0489255 ]
[0.08530551 0.09878391]
[-0.05869331 -0.05994014]
[0.04491663 0.04775721]
[0.03536352 0.06073234]
[-0.04910493 -0.0325995 ]
[-0.00987024 -0.02819497]
[0.00332    0.04226343]
[-0.04254573 -0.01631339]
[ 0.06843227 -0.00500373]
[-0.05363264  0.02417537]
[-0.02204759 -0.06673428]
[0.04289406 0.01606982]
[0.05708365 0.00918662]
[-0.07835223 -0.05722108]
[-0.00470219  0.02489995]
[-0.04400153 -0.03285411]
[0.05880533 0.02259597]
[-0.08278597 -0.09167859]
[0.05713511 0.07985235]
[0.0588138  0.05116449]
[0.04485163 0.04933842]
[-0.07919986 -0.05986026]
[0.03973982 0.07273736]
[ 0.00360336 -0.03342676]
[0.08640095 0.08153649]
[-0.07549069 -0.06857354]
[-0.02395662  0.0266776 ]
[0.05360587 0.03393328]
[-0.04663398 -0.03041893]
[-0.04479111  0.05584219]
[0.0382536  0.01669536]
[-0.02963945 -0.06007712]
[-0.04833751 -0.06380086]
[0.04706434 0.01838001]
[-0.05839042 -0.05131354]
[-0.0398861  -0.04625971]
[-0.02645863 -0.03649056]
[ 0.00778195 -0.06485605]
[-0.01501141  0.02969184]
[0.07756039 0.07154772]
[-0.04659512 -0.05865654]
[-0.02329587  0.03786273]
[-0.02891961  0.02812687]
[-0.06427866 -0.07689502]
[0.04362426 0.04830564]
[-0.07239773 -0.04447019]
[ 0.04580976 -0.02354691]
[-0.06351979 -0.00022494]
[ 0.0470232  -0.03406956]
[0.005456  0.0339463]
[-0.06891206 -0.09447001]
[ 0.04643778 -0.0618549 ]
[-0.01885136  0.00067982]
[-0.04929974 -0.09160216]
[ 0.00477118 -0.02812236]
[-0.02293565  0.04749513]
[-0.04219144  0.02063298]
[0.07598234 0.07390552]
[-0.06895151 -0.04683537]
[-0.04533709  0.03529071]
[0.06006272 0.03645475]
[-0.06981773 -0.07360021]
[ 0.00180956 -0.03608609]
[-0.05718386 -0.0485843 ]
[-0.05531098 -0.01408644]
[-0.0011321   0.00542287]
[ 0.06192209 -0.03657517]
[0.05462725 0.05535808]
[ 0.01923667 -0.00971251]
[0.08738172 0.05693966]
[-0.04503674  0.04769167]
[-0.06851737 -0.01538821]
[0.02334222 0.05801988]
[-0.03899254 -0.06585607]
[-0.01390343 -0.06478995]
[-0.00267406  0.07209657]
[ 0.02970371 -0.02544859]
[0.06511637 0.05684823]
[ 0.05098649 -0.0204682 ]
[0.00776775 0.05751456]
[0.02665711 0.02559688]
[ 0.00512339 -0.02702502]
[-0.0548861   0.00724557]
[-0.03605122 -0.02323904]
[0.02844858 0.02550764]
[-0.0220386   0.02782469]
[-0.01061214  0.01300234]
[0.06680816 0.03943137]
[-0.02335322  0.01892947]
[-0.00728046 -0.00188567]
[0.04716979 0.08418639]
[-0.03176324 -0.05473645]
[-0.01337972 -0.0236994 ]
[-0.05295077  0.01849439]
[-0.01203161  0.02199935]
[-0.0231156  -0.01565544]
[-0.04899088 -0.07979908]
[0.01560157 0.0559887 ]
[-0.08103451 -0.08047468]
[0.01002307 0.02785647]
[ 0.02451461 -0.02292107]
[-0.06089105 -0.04864082]
[-0.0729748 -0.0815934]
[0.05083134 0.07672448]
[-0.02814178 -0.03356818]
[0.02539619 0.05574943]
[0.04837038 0.04757445]
[-0.00462545  0.02913367]
[-0.05212376 -0.04788248]
[0.06530441 0.07625574]
[-0.05620119 -0.04657625]
[-0.0840035 -0.028442 ]
[-0.03947407  0.00981804]
[ 0.01272305 -0.04704966]
[-0.04020277  0.03789859]
[-0.02256309  0.00709154]
[0.08398411 0.06047501]
[-0.03840147 -0.07932061]
[-0.0006323  -0.02493781]
[-0.05207593  0.01064348]
[-0.01495101  0.00619706]
[0.05611363 0.08320442]
[ 0.0025441 -0.0170004]
[-0.08516847 -0.07803245]
[-0.02585193  0.02195791]
[ 0.01382164 -0.03324762]
[-0.06022833 -0.06211035]
[0.01384842 0.04660042]
[-0.00821478 -0.02845701]
[ 0.0058588  -0.02805552]
[0.04219684 0.05672134]
[0.02027842 0.02063744]
[0.00303425 0.03374958]
[0.09457432 0.05868595]
[-0.00663291 -0.05038245]
[-0.03544576 -0.02819657]
[-0.04289231 -0.00953808]
[ 0.00815057 -0.04344115]
[-0.0569397  -0.07067825]
[-0.03403993 -0.00495269]
[0.01768719 0.07938981]
[0.07116469 0.01236958]
[ 0.05358089 -0.01629719]
[ 0.00092911 -0.00201787]
[0.08608045 0.07467657]
[-0.04994787 -0.01931492]
[-0.05029956 -0.0101876 ]
[ 0.02798318 -0.06211042]
[-0.00942468  0.04318757]
[0.08108675 0.02239104]
[ 0.01481271 -0.03117596]
[0.07094315 0.05343002]
[ 0.00433804 -0.06875578]
[0.06962671 0.0566325 ]
[0.03746672 0.04767444]
[-0.03740417  0.01247366]
[-0.04998889  0.01074247]
[-0.06416236  0.01992988]
[-0.01543679 -0.0453744 ]
[ 0.02508576 -0.01610561]
[ 0.0495494  -0.03673918]
[0.09242925 0.08943091]
[-0.01232845  0.04572278]
[0.05189267 0.00146569]
[-0.0248538  -0.04592182]
[ 0.07282614 -0.02302857]
[0.06589032 0.00391185]
[0.07747824 0.07737613]
[-0.04816765 -0.00582022]
[ 0.02189129 -0.00602661]
[-0.08872413 -0.0452342 ]
[ 0.0102928  -0.02993901]
[-0.05291083  0.01435225]
[ 0.00551344 -0.00304842]
[-0.01075986  0.00618453]
[ 0.04043142 -0.01475306]
[0.04712791 0.00514819]
[0.00696437 0.0391571 ]
[-0.01858305  0.05465478]
[0.03575409 0.02844589]
[-0.01575772  0.00952918]
[-0.01128256  0.02601605]
[-0.08743135 -0.07696663]
[0.02301477 0.03100723]
[0.01442509 0.05963294]
[0.07112304 0.01690636]
[0.04402068 0.00853115]
[ 0.00153307 -0.02353832]
[-0.03601486  0.05372499]
[ 0.03888408 -0.01880844]
[ 0.01008982 -0.0169099 ]
[-0.05246245 -0.02850291]
[-0.05909946 -0.07813816]
[0.00265454 0.05900172]
[0.05439785 0.02605715]
[-0.04073573 -0.04928204]
[0.06999861 0.03412732]
[-0.05584358 -0.05073895]
[ 0.06085513 -0.02117307]
[-0.07584399 -0.06602081]
[0.05716982 0.03782799]
[0.0059419  0.04040739]
[ 0.00358548 -0.01736331]
[-0.03661536  0.03688596]
[-0.03110777  0.00947856]
[ 0.05988731 -0.02508775]
[0.07817715 0.04540352]
[-0.04366782  0.02379957]
[0.07474068 0.02817059]
[ 0.01005834 -0.06707772]
[ 0.07199209 -0.01048553]
[-0.06538429  0.03187787]
[0.08184389 0.06032432]
[-0.0950384  -0.09174234]
[ 0.00652261 -0.02252571]
[0.07149531 0.07960526]
[0.09152608 0.0491441 ]
[ 0.05068829 -0.01138153]
[-0.04819145  0.04349966]
[-0.04009704 -0.01534198]
[0.03136456 0.01886132]
[-0.02087156 -0.01771372]
[-0.05743184 -0.01125958]
[-0.02762754  0.02515993]
[ 0.00621855 -0.05685904]
[0.0907159  0.06322842]
[-0.06872784 -0.07955841]
[-0.00307651 -0.03070064]
[0.02135455 0.01988054]
[ 0.01929375 -0.05714092]
[ 0.02252165 -0.02059976]
[0.09093905 0.07558981]
[0.01572054 0.01591284]
[-0.06252418 -0.05381036]
[-0.05552248 -0.03811218]
[-0.0527641  -0.02259023]
[ 8.94091578e-05 -4.79513392e-02]
[-0.0460744  -0.07101675]
[0.01097935 0.02423085]
[0.04545673 0.04041161]
[-0.04776415  0.01851376]
[-0.05189672 -0.06978404]
[-0.05910477 -0.06557164]
[0.09051623 0.0466317 ]
[-0.04119359  0.01873963]
[-0.01217682  0.06489492]
[0.0135081  0.06012993]
[-0.0412394  -0.04121617]
[-0.02971203 -0.07749404]
[-0.01098185  0.0091267 ]
[0.01400027 0.05515475]
[-0.03997938 -0.03512269]
[-0.0174195  -0.00816204]
[-0.06917813 -0.05852913]
[0.05188931 0.01133661]
[-0.00189335 -0.06965661]
[-0.08075604 -0.07180066]
[ 0.0302128  -0.04716033]
[-0.01977507 -0.04584614]
[-0.01657585  0.0488596 ]
[0.05210124 0.06695006]
[-0.02097352 -0.05717966]
[-0.04389877 -0.06848468]
[-0.02359668 -0.01728147]
[ 0.00509979 -0.04227788]
[ 0.01535236 -0.02471101]
[-0.00969395 -0.04979621]
[-0.03527343  0.01752715]
[-0.01200675  0.00684053]
[0.0247707 0.0682266]
[0.04928358 0.01547543]
[-0.03107653 -0.00153798]
[0.02501205 0.04083865]
[0.08212334 0.0558875 ]
[0.01844549 0.02680582]
[-0.03773483  0.01055971]
[0.06530884 0.08205569]
[0.0601791  0.03537069]
[-0.04716739 -0.03410632]
[0.06697105 0.03770098]
[0.05874025 0.02384432]
[-0.00897922 -0.01992678]
[-0.01936815 -0.0717308 ]
[0.04831643 0.03931803]
[-0.05302987  0.02152111]
[-0.07913855 -0.08766284]
[0.02208835 0.06251007]
[-0.08805471 -0.08010274]
[0.07116054 0.06910099]
[0.04192827 0.01562922]
[-0.01107633 -0.02321159]
[0.02391315 0.03832399]
[0.05461941 0.03319883]
[ 0.00231774 -0.00734599]
[-0.03795681 -0.04081062]
[-0.02183185  0.01761776]
[0.04904836 0.02296383]
[-0.05579228 -0.06075593]
[0.06824387 0.08063212]
[-0.08423003 -0.06280835]
[0.05211859 0.05017705]
[-0.03606633 -0.0037592 ]
[0.02770562 0.0336884 ]
[-0.0118677  -0.01442786]
[-0.04489906 -0.04583727]
[-0.04552788 -0.00679477]
[0.03212983 0.03925295]
[-0.07762401 -0.03409624]
[-0.04651626 -0.0236512 ]
[0.06104528 0.03475805]
[-0.00655929  0.04425729]
[0.0481657  0.00289926]
[0.07282086 0.08700743]
[-0.05611778 -0.0153079 ]
[ 0.04654222 -0.00857807]
[0.00613515 0.03320027]
[-0.06596214 -0.04226332]
[-0.00405652 -0.03548511]
[0.06599786 0.05516309]
[0.06522281 0.03248332]
[-0.0386394   0.04726773]
[0.05867768 0.01705315]
[0.07038737 0.07321127]
[0.04583297 0.02363405]
[0.04435947 0.04757841]
[ 0.00140461 -0.03566529]
[0.03414686 0.01055358]
[-0.07002877 -0.07716451]
[-0.03115084  0.01296373]
[0.07237698 0.06942757]
[-0.07732984 -0.08682369]
[ 0.02062298 -0.01133784]
[-0.05783134 -0.08740799]
[-0.07895962 -0.07421317]
[-0.04804809 -0.03101715]
[0.05813813 0.06714866]
[0.06222839 0.00848794]
[0.03025389 0.00915503]
[-0.08898375 -0.08496145]
[-0.01850536  0.06401818]
[ 0.01430946 -0.0223245 ]
[0.04219161 0.03133027]
[-0.07467489 -0.04436956]
[ 0.00671867 -0.03626849]
[0.07836576 0.08468472]
[ 0.03201654 -0.03792392]
[0.02366035 0.03088634]
[ 0.02206189 -0.02531066]
[ 0.02987181 -0.01111443]
[0.02331179 0.03910483]
[ 0.0329787 -0.0186419]
[-0.00040566 -0.02062446]
[0.09518205 0.06738242]
[0.01208608 0.04653795]
[0.05417936 0.07807025]
[-0.05452695 -0.05218391]
[-0.06406832 -0.05358814]
[-0.00300504  0.00578527]
[0.01132887 0.02650891]
[-0.0482983  -0.06324564]
[-0.02090807 -0.01565113]
[0.01567171 0.05146754]
[-0.037799   -0.03787891]
[-0.04986824 -0.03270522]
[-0.01144643  0.00450292]
[-0.04462195 -0.04780659]
[0.05581884 0.07002918]
[-0.0700689  -0.06905394]
[-0.05247842  0.01582189]
[-0.03873157  0.00244785]
[-0.03007388  0.03396106]
[-0.02203785  0.01918263]
[-0.05971571 -0.04934849]
[-0.02278851  0.00925278]
[0.04395599 0.06126985]
[-0.02760338  0.01635872]
[0.04091212 0.01298455]
[ 0.00484564 -0.05681402]
[-0.05455459 -0.0329559 ]
[ 0.00502567 -0.0291873 ]
[-0.02143888 -0.0011761 ]
[ 0.04111795 -0.04306955]
[0.07751693 0.08511654]
[-0.01711954  0.04858552]
[-0.02297813  0.04083966]
[0.00352796 0.00796524]
[-0.03416606  0.01902253]
[-0.05450979 -0.00381593]
[0.02416047 0.04214652]
[0.00955008 0.04368981]
[-0.02957178 -0.02878818]
[0.02985974 0.01127854]
[0.00206796 0.01274976]
[0.05147956 0.02871758]
[-0.02790934 -0.05874472]
[0.0456557  0.07141313]
[-0.06210158 -0.02297985]
[0.07551368 0.02409525]
[-0.01599026 -0.06226393]
[0.00995363 0.02801467]
[-0.03880804  0.05939935]
[-0.0363441   0.01035946]
[-0.05629776 -0.06714785]
[-0.04284438 -0.03814509]
[-0.01057876 -0.04960358]
[0.05521889 0.0517201 ]
[0.05267952 0.04866531]
[-0.05326154 -0.05071825]
[-0.06867646 -0.03016166]
[-0.0531456   0.00167686]
[0.07918963 0.06190281]
[-0.08784653 -0.08467887]
[-0.00433775  0.06989075]
[-0.01599177  0.02605967]
[0.03829713 0.01952027]
[-0.03950608 -0.04531157]
[ 0.05484323 -0.04566464]
[-0.05209213 -0.03888243]
[0.07238828 0.05218624]
[-0.04776271 -0.06626266]
[0.07418361 0.0606725 ]
[-0.04801269  0.03155035]
[0.00850489 0.0005905 ]
[-0.0067425  -0.05059857]
[-0.04360902 -0.07271706]
[ 0.01893473 -0.0026049 ]
[-0.01781148 -0.02843704]
[ 0.01029188 -0.04333044]
[-0.03272765  0.00707195]
[0.04997251 0.02837406]
[ 0.01043086 -0.05962755]
[-0.06213851 -0.07845842]
[0.01151994 0.0863106 ]
[-0.07771088 -0.03140721]
[-0.06989511 -0.00656988]
[-0.04329469  0.02251479]
[-0.02847577  0.02612061]
[-0.04796249 -0.04035862]
[-0.0336396   0.04129219]
[0.0132194  0.05960129]
[-0.05899381 -0.01519737]
[0.06151521 0.09004955]
[ 0.01236162 -0.04108584]
[ 0.00996861 -0.04308698]
[0.05069164 0.0674259 ]
[0.00885774 0.00152837]
[ 0.03952801 -0.05220314]
[-0.082793   -0.06490334]
[-0.0020665   0.01128512]
[-0.03006743 -0.03713181]
[-0.02935213  0.02988198]
[-0.02898595 -0.00933587]
[0.04489121 0.03983876]
[-0.02451575 -0.05838171]
[-0.01243904 -0.01098801]
[ 0.06042211 -0.00546618]
[-0.06093645 -0.06182051]
[-0.06048193 -0.08201506]
[-0.03150035 -0.0385713 ]
[0.06945786 0.06411182]
[-0.04242389  0.03433758]
[-0.04590665  0.01186792]
[-0.01505491 -0.05301856]
[0.08320576 0.07277315]
[ 0.04350179 -0.00081797]
[-0.01793814  0.06195075]
[ 0.0297902  -0.05789689]
[-0.00621684  0.04330981]
[-0.00642377 -0.03847313]
[ 0.0256406 -0.0147128]
[-0.09211346 -0.06154308]
[0.07958377 0.05033046]
[-0.03912686  0.02048843]
[0.03259806 0.03293787]
[-0.07866995 -0.05862752]
[0.0631397 0.0579759]
[-0.05794001 -0.0487789 ]
[0.01936686 0.0584667 ]
[-0.06593195 -0.07363173]
[0.00844566 0.05039881]
[-0.05614325 -0.07009317]
[-0.06875636 -0.04972093]
[-0.07489595 -0.00097188]
[ 0.02868311 -0.00207503]
[0.03179816 0.0166302 ]
[ 0.00761195 -0.02101325]
[0.02978972 0.0194602 ]
[0.02558463 0.00482869]
[-0.01641029 -0.07409455]
[-0.00941501 -0.06426563]
[-0.0495268  -0.03530395]
[ 0.00944376 -0.02559106]
[-0.02323751  0.00361791]
[0.07671969 0.06262708]
[-0.05041401  0.03400849]
[-0.06475696 -0.03447782]
[ 0.05433064 -0.01592206]
[-0.03904867  0.01708706]
[0.04737628 0.00349903]
[-0.05487851 -0.06213278]
[0.06306747 0.04490656]
[ 0.03877132 -0.00508477]
[-0.0850104  -0.01294147]
[-0.02922438 -0.02555686]
[ 0.00575426 -0.03929909]
[-0.04287703 -0.09079746]
[-0.01215055 -0.03903116]
[0.0416127  0.05423794]
[-0.01443871 -0.07049154]
[0.07024954 0.07811195]
[-0.04043936 -0.0203111 ]
[0.06222474 0.00034095]
[0.03283644 0.09139287]
[-0.06817389 -0.06155196]
[-0.02993276  0.06065299]
[-0.00438595 -0.074644  ]
[0.03563366 0.05223276]
[0.03370224 0.08987833]
[0.06218896 0.06338166]
[-0.05758504 -0.07027877]
[-0.04689902 -0.06782134]
[0.03086734 0.01533433]
[ 0.00079111 -0.08403773]
[0.01306375 0.05311425]
[ 0.03236881 -0.01931854]
[ 0.00562791 -0.01828075]
[-0.07414658 -0.00474448]
[-0.02523339 -0.02048241]
[0.06110177 0.04964522]
[ 0.02086767 -0.05568654]
[-0.01501439 -0.00818561]
[ 0.02105173 -0.03413326]
[0.00184876 0.07096754]
[-0.08666159 -0.05039473]
[-0.04180777  0.02894784]
[0.05758609 0.04210252]
[0.00493823 0.0417513 ]
[0.05483876 0.02728253]
[0.06337122 0.02681139]
[-0.02724303 -0.08215169]
[0.02538553 0.00645831]
[ 2.71700708e-05 -1.52948701e-02]
[-0.02259228 -0.03210007]
[-0.00139528 -0.05429814]
[ 0.04214052 -0.0238975 ]
[-0.00091096  0.03662726]
[0.06601017 0.07796169]
[-0.00795526  0.05381131]
[0.04186315 0.0441139 ]
[0.05957936 0.07700755]
[-0.02520414 -0.02499491]
[-0.04189526 -0.06704668]
[-0.01573493 -0.04097016]
[0.08363806 0.06722685]
[ 0.0690526  -0.01080233]
[0.04351546 0.02176183]
[-0.0108319   0.03331818]
[-0.04900031  0.04136349]
[-0.08161975 -0.06808353]
[0.04502907 0.004299  ]
[-0.00657453  0.05079381]
[0.00730173 0.03511686]
[0.08691416 0.10134544]
[-0.03498367 -0.02648932]
[0.05211897 0.07185619]
[0.0342995  0.05958918]
[0.03973548 0.0103349 ]
[ 0.01925206 -0.00378908]
[0.04151847 0.06703482]
[0.03838115 0.07577206]
[ 0.04397793 -0.01449252]
[0.03871152 0.06198033]
[0.03700433 0.02868147]
[ 0.00767093 -0.00818324]
[-0.05652595 -0.02124449]
[-0.03488124  0.03030191]
[ 0.02279789 -0.00049453]
[-0.02462151  0.03405792]
[0.04674156 0.08039178]
[-0.07182119 -0.05898956]
[-0.03979737  0.00547671]
[-0.04004664  0.04829361]
[-0.00337715  0.0069069 ]
[-0.05342666 -0.01525856]
[-0.05087531 -0.06090091]
[0.08266167 0.07400472]
[-0.05711932  0.02463315]
[0.06067674 0.02217256]
[0.04221776 0.04257414]
[0.02440895 0.00450233]
[0.01182521 0.01767712]
[ 0.03710897 -0.02059453]
[0.0545593  0.05935342]
[0.06660309 0.05434494]
[0.03949571 0.00986345]
[0.02749877 0.04712768]
[0.06565029 0.08002375]
[0.07722392 0.03073805]
[0.00831196 0.05194092]
[-0.02931181  0.02658361]
[-0.04651016  0.00323799]
[ 0.01443906 -0.00470401]
[0.06060866 0.0209979 ]
[-0.00847888 -0.00935005]
[-0.07775831 -0.03736676]
[-0.06187659 -0.00643264]
[0.03354096 0.04811582]
[ 0.00598241 -0.04206321]
[0.03964015 0.02018052]
[-0.08363637 -0.09096415]
[-0.01778614  0.01553839]
[0.09070799 0.08914913]
[ 0.03269406 -0.02113461]
[ 0.00705222 -0.03641917]
[ 0.02095556 -0.03764408]
[0.0573131  0.06769878]
[-0.01369847 -0.0692733 ]
[0.00537587 0.05196826]
[-0.0714216  -0.08491605]
[0.03256481 0.02658205]
[-0.0476204   0.05300957]
[0.01149621 0.0194016 ]
[0.06117217 0.07733609]
[-0.06942127 -0.04872594]
[-0.04625543 -0.02069589]
[-0.08527287 -0.08281639]
[-0.01291616  0.0539631 ]
[0.08919029 0.05866212]
[-0.05869917  0.00589046]
[-0.08415403 -0.07773434]
[-0.0872846 -0.0807872]
[0.03670144 0.04120304]
[-0.00947955  0.0299332 ]
[ 0.03782488 -0.04229253]
[-0.07176959 -0.03636466]
[-0.0349714  -0.02897103]
[ 0.02239871 -0.00720783]
[0.06898772 0.07330281]
[-0.00288546 -0.00860033]
[-0.06890098 -0.0580446 ]
[ 0.05127708 -0.02475864]
[0.02164477 0.00159459]
[-0.04756123  0.04630945]
[-0.0591648   0.00885943]
[0.07997828 0.0562961 ]
[-0.04415911 -0.07597111]
[0.02331594 0.03933487]
[-0.00764599  0.01016549]
[-0.00498186 -0.07487858]
[ 0.0681941  -0.00805405]
[0.00019052 0.04496104]
[-0.0125229  -0.00040776]
[ 0.01296025 -0.04263465]
[0.0063018  0.03307204]
[0.02316142 0.02634615]
[0.03445135 0.05353706]
[ 0.03906797 -0.04366598]
[-0.06359319 -0.07375678]
[-0.03208527  0.02204698]
[-0.07412148 -0.07914557]
[0.04082125 0.00219745]
[-0.01860023  0.00542132]
[ 0.03562619 -0.05071742]
[0.03548101 0.036848  ]
[ 0.04558799 -0.03271116]
[ 0.01565655 -0.0523178 ]
[-0.06103277  0.00851725]
[-0.09410061 -0.09251263]
[-0.06666138 -0.03286591]
[0.06382122 0.08619251]
[-0.02254035  0.02633794]
[0.05740062 0.0760971 ]
[-0.04333327 -0.06723052]
[0.04593537 0.02689762]
[-0.03729686 -0.06804402]
[-0.08408069 -0.05140324]
[-0.0260033  -0.02456022]
[0.05789704 0.01016223]
[-0.0105392   0.03716528]
[-0.01077929  0.05528607]
[0.062818   0.03762821]
[ 0.02048208 -0.03948248]
[ 0.0062866  -0.02030429]
[-0.03006354 -0.02712376]
[0.05466869 0.0080296 ]
[0.00725214 0.03237522]
[-0.05277204 -0.02217558]
[0.04859359 0.04950431]
[-0.01098368  0.0174469 ]
[0.07388601 0.09195716]
[ 0.03154256 -0.02987537]
[-0.01519348  0.00137454]
[-0.0042405  -0.02840035]
[ 0.0217278  -0.04223458]
[0.08372265 0.05180048]
[0.05729091 0.07199067]
[0.00878077 0.0661582 ]
[-0.06156562 -0.07856745]
[-0.07250125 -0.06797578]
[-0.02656889 -0.02089449]
[ 0.01885374 -0.04992184]
[0.06729537 0.07568638]
[-0.01780276 -0.0039975 ]
[ 0.01202103 -0.00367362]
[0.00032484 0.03318224]
[-0.07253759 -0.07249518]
[-0.03133822 -0.0478987 ]
[-0.04600436 -0.06258522]
[-0.01740568  0.0199297 ]
[-0.01354869 -0.00407938]
[ 0.01182754 -0.01231628]
[0.01540382 0.00047559]
[ 0.03950104 -0.0473989 ]
[ 0.00377816 -0.02098973]
[-0.03475899 -0.03144136]
[-0.01467659 -0.01772457]
[-0.0456457  -0.03839414]
[-0.07834385 -0.04597336]
[-0.0383971   0.02305181]
[0.03766168 0.02576426]
[0.05490234 0.07409214]
[0.03523556 0.02173382]
[-0.06395155 -0.03028007]
[0.02318838 0.01317074]
[ 0.0482278  -0.01497217]
[ 0.00728593 -0.02336983]
[0.01298312 0.06495923]
[-0.03489781 -0.02648207]
[-0.0260598  -0.07789296]
[-0.0074047   0.01091577]
[0.04142284 0.0488757 ]
[0.02111491 0.01851359]
[-0.00026521 -0.062082  ]
[ 0.0469858  -0.01742045]
[-0.02404028 -0.03322005]
[0.01405865 0.01329693]
[-0.00582134  0.0709701 ]
[0.05888378 0.06933882]
[-0.00394802  0.01491128]
[-0.01766174 -0.03879657]
[-0.01314598 -0.04356644]
[-0.0391243  -0.01589787]
[-0.07316923 -0.03496293]
[0.08378818 0.08008855]
[-0.057731    0.00560117]
[-0.06002668 -0.07130357]
[-0.00943379  0.01460261]
[-0.02790603 -0.05314853]
[0.05297198 0.01389788]
[ 0.03716663 -0.02828058]
[-0.05496849 -0.02509092]
[-0.03111628 -0.0751959 ]
[-0.09132384 -0.08207868]
[-0.08985941 -0.06685728]
[0.00911153 0.00134623]
[ 0.0686451  -0.05854372]
[0.06237789 0.02680919]
[ 0.03414877 -0.04771094]
[-0.04000002  0.03244967]
[0.0098006  0.01597497]
[-0.06126935 -0.00767755]
[0.07689431 0.09186383]
[-0.02165543 -0.0294718 ]
[-0.03788326 -0.03555765]
[-0.04768936 -0.0203622 ]
[0.03581034 0.03324502]
[ 0.02803344 -0.03017247]
[0.04266025 0.06213179]
[ 0.00890131 -0.0034046 ]
[-0.07414297 -0.08492648]
[-0.00110674  0.02473358]
[-0.04479333 -0.03270748]
[0.02639597 0.0641124 ]
[0.08503966 0.06525929]
[0.09012186 0.0638889 ]
[-0.02875378  0.03734322]
[-0.03485968  0.04592674]
[-0.03489482 -0.03980029]
[-0.004833   -0.06180009]
[0.03982678 0.01780499]
[0.04206214 0.05804398]
[0.03634677 0.01100809]
[0.00385002 0.01856467]
[ 0.02049255 -0.03501347]
[0.05718459 0.08090048]
[0.04768305 0.06145842]
[ 0.03268177 -0.0669486 ]
[-0.0601573  -0.03648205]
[0.06473713 0.07764115]
[0.04037523 0.00199893]
[ 0.06025867 -0.00050848]
[-0.01641604 -0.05494493]
[-0.05808364 -0.0470767 ]
[-0.03181046  0.00117252]
[ 0.0369195  -0.02160663]
[-0.06378187 -0.01541179]
[0.06548822 0.01089387]
[-0.01974503  0.02645154]
[-0.00835051 -0.06702311]
[0.06289964 0.03212509]
[-0.02766412  0.0214839 ]
[-0.03805433 -0.01212473]
[ 0.0125651  -0.05782448]
[0.00131012 0.03917565]
[ 0.05118779 -0.05480628]
[0.07490805 0.07941699]
[0.09716289 0.087567  ]
[-0.03695188  0.0400062 ]
[-0.06151437 -0.03580993]
[-0.03465605 -0.03715448]
[-0.02926536  0.00882652]
[-0.07630738 -0.03341529]
[-0.01500927 -0.04149708]
[-0.04171466 -0.04713194]
[-0.04248967  0.0189346 ]
[-0.05056771 -0.01463259]
[-0.01628989 -0.04168041]
[-0.05017278  0.05443227]
[ 0.02520631 -0.03554905]
[-0.0783381  -0.07847672]
[-0.0486761  -0.08622792]
[-0.04241988 -0.03354484]
[0.05969395 0.01431573]
[0.03093291 0.02495619]
[ 0.05522026 -0.02432918]
[0.01743706 0.0004653 ]
[0.05832007 0.0104847 ]
[0.0765789  0.09125202]
[-0.01682898 -0.0581341 ]
[-0.05918453 -0.09240671]
[ 0.02753801 -0.05425544]
[ 0.00759593 -0.04471367]
[-0.04564189 -0.04380018]
[0.00823007 0.01710347]
[0.06623384 0.03872184]
[-0.07770507 -0.08460356]
[0.04967527 0.00983499]
[ 0.01151853 -0.01297169]
[ 0.00897257 -0.00988328]
[-0.00399622  0.01168263]
[-0.03049673 -0.05921369]
[0.08079106 0.08559441]
[-0.02331308  0.00843518]
[0.04691397 0.01925397]
[ 0.02792312 -0.03287132]
[0.05553748 0.05302374]
[-0.05884406 -0.06981556]
[0.00793245 0.00622155]
[-0.0048946  -0.05134266]
[-0.05524854 -0.07526957]
[-0.05012922  0.0150041 ]
[-0.0750933  -0.01169624]
[0.0044738  0.02895826]
[0.03958576 0.06893156]
[0.01186475 0.01276999]
[-0.03233397 -0.0501797 ]
[-0.02711331 -0.04197768]
[-0.06934044 -0.03147411]
[-0.04419413  0.01010171]
[-0.03990924 -0.00233962]
[-0.03347479  0.00875674]
[ 0.04147923 -0.03123265]
[-0.08715425 -0.06110316]
[ 0.01743465 -0.02974402]
[0.06742858 0.07036049]
[-0.01771036 -0.03487463]
[-0.0790112  -0.00774053]
[-0.06467494 -0.08193503]
[-0.08572385 -0.06775176]
[-0.08589456 -0.0758212 ]
[0.07305683 0.05509056]
[-0.03352738 -0.07657671]
[-0.05082587  0.02126541]
[-0.02333961 -0.07045239]
[-0.03175217  0.00119791]
[-0.03269812 -0.0624934 ]
[-0.03023859 -0.08240832]
[-0.03785919 -0.00731965]
[0.00635812 0.03886466]
[-0.03624936 -0.02969573]
[-0.07567179 -0.05814889]
[-0.01261946 -0.0762283 ]
[-0.00775345  0.01126532]
[0.08410326 0.03831505]
[-0.0608228   0.00287262]
[-0.03229764  0.01648989]
[ 0.00040421 -0.03209949]
[-0.00926986 -0.02274728]
[ 0.01820852 -0.03814049]
[ 0.00973782 -0.05347391]
[ 0.01685946 -0.03392361]
[0.07069313 0.03432162]
[ 0.03929243 -0.04521765]
[-0.05751773  0.00307542]
[-0.06885107 -0.01125757]
[-0.01982708 -0.04808265]
[-0.07496879 -0.07812323]
[0.05502902 0.03294189]
[-0.03848451  0.00010192]
[0.06476832 0.02420168]
[-0.09081956 -0.04779031]
[0.07131942 0.09619048]
[-0.02238912  0.06955949]
[-0.00652272 -0.05722852]
[-0.03847454 -0.05903919]
[-0.05361278 -0.0478449 ]
[0.0707226  0.01534547]
[ 0.00095676 -0.04646555]
[-0.05640525 -0.10915298]
[-0.04048166  0.05818548]
[ 0.02958861 -0.02836964]
[ 0.00253447 -0.04003302]
[-0.00094922  0.0315465 ]
[-0.01216979 -0.07185744]
[-0.0264342  -0.04985159]
[0.07891068 0.02876701]
[-0.07136871  0.00055256]
[-0.10116817 -0.0492728 ]
[-0.03667446  0.0423659 ]
[0.04869601 0.00271861]
[-0.02228315 -0.02309777]
[ 0.06239108 -0.03937704]
[0.077364   0.04391406]
[ 0.01787416 -0.04324378]
[-0.03215496 -0.03900524]
[-0.06029622  0.05149785]
[-0.01948181 -0.01750455]
[ 0.00922522 -0.0434724 ]
[-0.01003569 -0.02664579]
[-0.02126647 -0.03122191]
[0.04452709 0.05151022]
[-0.0672094  -0.08713879]
[-0.04221702 -0.01580992]
[0.05535068 0.10115174]
[-0.10488887 -0.04704192]
[-0.00988927 -0.07716524]
[ 0.06375687 -0.04209989]
[0.0732867  0.06489362]
[0.03454661 0.02384086]
[0.02587506 0.02245866]
[0.08828908 0.05597134]
[-0.03845529  0.05909418]
[0.05879291 0.08768499]
[0.082817   0.06971014]
[-0.04356169 -0.01027242]
[-0.02917484  0.02584276]
[-0.02193973  0.07172857]
[-0.04441357 -0.04489375]
[0.0357396  0.08689758]
[-0.00181908  0.00742698]
[-0.08963123 -0.03600994]
[0.02049467 0.02081757]
[ 0.05340532 -0.07341779]
[-0.05996921 -0.06832579]
[ 0.02906279 -0.01478188]
[0.02344432 0.03833586]
[ 0.02874795 -0.05608527]
[-0.05658907  0.00467751]
[-0.02174176  0.05596948]
[0.01638541 0.05571421]
[-0.06081965 -0.00613155]
[ 0.04957254 -0.05757586]
[-0.05624945 -0.04734963]
[0.08156356 0.00908974]
[0.07311685 0.07530246]
[-0.08229141 -0.02692616]
[0.0124707  0.06264741]
[ 0.06769806 -0.00393746]
[0.06453205 0.06360113]
[-0.03123702 -0.07272763]
[0.0356896 0.006461 ]
[-0.02444763  0.00379724]
[-0.00458634 -0.00246031]
[-0.08254571  0.00194737]
[0.0150557  0.00076437]
[3.72464534e-02 1.35366056e-05]
[-0.02426016 -0.0312293 ]
[0.06673034 0.06489842]
[0.00667016 0.07934702]
[ 0.05125215 -0.02910755]
[-0.05468991 -0.02690183]
[-0.02397585  0.00408937]
[0.04264635 0.06586006]
[-0.05709985 -0.04047094]
[-0.00782674 -0.0218556 ]
[0.03687747 0.06381831]
[-0.00267701  0.05853492]
[-0.02711378 -0.01402837]
[0.06235605 0.05644845]
[0.0626708  0.08682119]
[0.02523043 0.06608346]
[ 0.00708954 -0.04235065]
[-0.06003481  0.01832305]
[ 0.01487905 -0.02169235]
[-0.04696463  0.00606   ]
[0.04098035 0.02056655]
[ 0.02394904 -0.01008937]
[0.04816304 0.03153472]
[0.07396038 0.05294937]
[0.01932273 0.02918907]
[ 0.04922143 -0.03296997]
[0.00760235 0.05022886]
[-0.08742926 -0.07985503]
[-0.0418279  -0.05463092]
[0.05977631 0.08041609]
[0.02363075 0.06623606]
[-0.03843513  0.00567764]
[0.02147521 0.05344317]
[0.03012281 0.07339587]
[0.00599865 0.07198638]
[0.05981884 0.0086108 ]
[-0.03182611 -0.0820801 ]
[-0.02024091 -0.05017826]
[-0.03073119 -0.04558052]
[ 0.02757934 -0.00550503]
[0.02727989 0.0614736 ]
[0.04889264 0.03477323]
[-0.01649586 -0.0153148 ]
[-0.07479706 -0.01750112]
[-0.03507777 -0.04400753]
[0.05237452 0.04780006]
[0.06996686 0.00221792]
[-0.00240869 -0.01025881]
[-0.02222302  0.00193006]
[0.0744118  0.04964259]
[-0.03429378  0.03562675]
[0.05850268 0.06037713]
[-0.02726392  0.01321476]
[ 0.00377528 -0.04927208]
[ 0.06359826 -0.00623605]
[0.0517924  0.07155062]
[0.04590724 0.07676267]
[ 0.0151996  -0.04120649]
[ 0.03062751 -0.00370238]
[-0.01745979  0.0373037 ]
[0.053862   0.09403818]
[-0.05041773 -0.00241234]
[0.04501396 0.01268031]
[-0.00911091  0.05392626]
[0.05681935 0.03647328]
[0.01996119 0.0556436 ]
[0.07930089 0.06754298]
[0.00659489 0.05109169]
[-0.04010116 -0.00667456]
[-0.03738923 -0.07565381]
[-0.03532841  0.05175176]
[-0.04274287  0.01172338]
[-0.03935763 -0.00772422]
[-0.06482398 -0.05114111]
[-0.01118078  0.03262144]
[0.0638622  0.00206721]
[ 0.00726991 -0.03668822]
[-0.06505749 -0.02520558]
[ 0.03379162 -0.03536731]
[ 0.03534337 -0.02303526]
[-0.0661995  -0.01444013]
[-0.0673686   0.00918677]
[0.05684717 0.0856286 ]
[0.02696845 0.00450782]
[-0.06053356 -0.01788278]
[-0.02767227  0.0165161 ]
[ 0.00122018 -0.04340757]
[ 0.02992686 -0.02191413]
[0.03158272 0.05814714]
[-0.06842653 -0.01212695]
[-0.05512117  0.00574834]
[-0.02694293  0.01874275]
[-0.04509661  0.02820665]
[0.00974961 0.04459288]
[-0.05116436 -0.0365135 ]
[0.05430369 0.06913588]
[0.01147349 0.06201775]
[-0.01175127 -0.06250638]
[-0.02723615 -0.05011157]
[ 0.03241169 -0.01637627]
[-0.03108048  0.03987361]
[ 0.04179022 -0.00950161]
[-0.03616971 -0.07098577]
[-0.0324034   0.01536411]
[0.01507286 0.0628006 ]
[0.0135447 0.0402578]
[-0.00441788  0.02001528]
[-0.05139317 -0.00280303]
[-0.05083389  0.00228435]
[-0.07296502 -0.06154473]
[ 0.02203867 -0.05490462]
[0.00918328 0.04025505]
[-0.07860287 -0.02869901]
[-0.04211879  0.04021902]
[-0.07911241 -0.04472906]
[-0.00137686  0.01880934]
[-0.03368879 -0.05466981]
[-0.00317694 -0.00794111]
[ 0.07075224 -0.00716893]
[0.00173925 0.01194847]
[-0.04562847 -0.02464425]
[0.07926042 0.0405346 ]
[ 0.0179228 -0.0458275]
[-0.04843893  0.02308263]
[0.02486007 0.08214162]
[-0.01791538 -0.00613791]
[-0.04249197 -0.00059994]
[0.07554168 0.06267119]
[-0.08805442 -0.08280243]
[-0.0142151  -0.05360328]
[0.01792354 0.02819805]
[0.0044779  0.01288919]
[-0.04279055  0.04444106]
[-0.07226345 -0.08329624]
[0.0985839 0.077612 ]
[0.08770906 0.0819256 ]
[0.0114763  0.06456796]
[-0.06718165 -0.07543279]
[-0.00665564 -0.0192275 ]
[-0.00209776  0.00283494]
[-0.00748308  0.01812507]
[ 0.03799843 -0.00607148]
[0.07181185 0.05017126]
[-0.03534914  0.01826879]
[-0.01565118 -0.0376724 ]
[-0.08955128 -0.06120908]
[0.05340655 0.05441725]
[-0.05312249 -0.02447966]
[-0.03414611  0.02493081]
[0.03914415 0.04435623]
[0.0390966  0.07508331]
[0.05571503 0.04596473]
[-0.03311714 -0.02850663]
[-0.04323305  0.0323213 ]
[0.0625655  0.05655821]
[0.00269172 0.04669099]
[0.07666209 0.0733467 ]
[-0.07070768 -0.05381601]
[-0.04328483  0.05431147]
[-0.00309384  0.00370258]
[0.00033317 0.01110944]
[0.02151236 0.07081131]
[0.07784343 0.05577733]
[-0.02213887  0.04357182]
[-0.03919295  0.04027528]
[0.05285533 0.05693805]
[-0.00615647  0.00193328]
[-0.02425838  0.03132032]
[0.07229889 0.02959332]
[ 0.05833802 -0.02142644]
[-0.00321465 -0.02760178]
[ 0.07153667 -0.02311311]
[0.03997208 0.04861943]
[-0.03897471  0.04187428]
[-0.06384188  0.0049214 ]
[-0.05122592 -0.01474462]
[-0.04602502  0.02093413]
[0.04884377 0.02537219]
[-0.09080709 -0.0978794 ]
[-0.02505534  0.05565561]
[-0.0244943  0.0256161]
[-0.03799778 -0.05465145]
[-0.04184297 -0.04717369]
[-0.04128372  0.04050788]
[0.00685725 0.02680336]
[-0.00929384 -0.07428664]
[-2.97371456e-05  2.26913714e-03]
[0.03363181 0.00779295]
[-0.06356194 -0.0014038 ]
[0.01357666 0.01177764]
[0.05257281 0.0055608 ]
[-0.00149169 -0.05307264]
[-0.0253692   0.04591591]
[-0.08937235 -0.07613258]
[ 0.03231589 -0.02177136]
[-0.02844376  0.02044088]
[ 0.06643374 -0.03347272]
[ 0.02329587 -0.04569516]
[-0.01846192 -0.04038072]
[0.07381626 0.03401712]
[-0.05293859 -0.07602475]
[-0.00348271  0.07172057]
[0.01390643 0.04034235]
[-0.02988393 -0.00892032]
[-0.03063262  0.04035171]
[-0.05756062 -0.06305998]
[ 0.02254675 -0.05359114]
[ 0.03137313 -0.0685704 ]
[-0.00379358  0.02002147]
[ 0.06350997 -0.03714348]
[-0.00631426 -0.0401859 ]
[-0.01946904  0.04948898]
[ 0.04017073 -0.02990966]
[ 0.04062692 -0.06424677]
[ 0.00545475 -0.08003839]
[0.08415879 0.02664253]
[-0.01589736 -0.00935977]
[0.05043767 0.02557415]
[-0.09583742 -0.06376396]
[-0.04717055 -0.05014051]
[-0.06610425 -0.02768518]
[-0.07599948  0.01469827]
[0.07225044 0.04659735]
[ 0.03920859 -0.03857769]
[0.05372394 0.05592596]
[0.03564754 0.01639353]
[ 0.04589538 -0.00758957]
[0.05342942 0.00299913]
[ 0.04770542 -0.01428564]
[-0.0815147  -0.10245772]
[0.08588626 0.0222708 ]
[ 0.04777827 -0.00085219]
[-0.01235383 -0.00335236]
[0.05087193 0.05702825]
[0.0440035  0.08837621]
[0.04558544 0.10376676]
[0.00078886 0.04111825]
[-0.00266509 -0.00424999]
[-0.04449172  0.0087328 ]
[ 0.02225418 -0.06441027]
[-0.06220626  0.02919068]
[-0.00416497 -0.05058466]
[-0.07927955  0.01275268]
[-0.06894047 -0.07762214]
[-0.02352937 -0.05713187]
[-0.01858958 -0.09560604]
[-0.01797778  0.02988304]
[0.02683389 0.0222306 ]
[-0.02119247  0.04937079]
[0.0712041  0.09011214]
[-0.00411394  0.05593322]
[0.03394745 0.09810433]
[-0.05415694  0.01473577]
[-0.06551762  0.05890787]
[0.08773725 0.00149533]
[0.03718872 0.03442314]
[-0.05500406 -0.01933161]
[-0.02383684 -0.01068125]
[0.05030237 0.01656914]
[-0.04807774 -0.00641658]
[-0.01793709 -0.02375438]
[0.02639839 0.02928139]
[ 0.04201804 -0.04364523]
[0.07171711 0.06484222]
[0.04046599 0.06141514]
[-0.05334421 -0.05275763]
[0.05165595 0.04327773]
[-0.01747026  0.04660649]
[0.01988753 0.05330467]
[-0.03681899  0.05537723]
[ 0.04115994 -0.03683264]
[-0.02010072  0.0153797 ]
[0.03372055 0.02476619]
[-0.00223451  0.00813205]
[-0.0429624  -0.06955096]
[-0.03366085 -0.05668977]
[0.083057   0.06490313]
[0.01413951 0.01392525]
[-0.01798406 -0.01602577]
[-0.04771493 -0.06000437]
[-0.04144741 -0.05526281]
[0.06898009 0.08494334]
[-0.05188529 -0.01074874]
[ 0.03750608 -0.01155834]
[-0.00020209  0.01075346]
[-0.00534172  0.04271486]
[ 0.00124233 -0.01537931]
[0.10544121 0.08541045]
[-0.05012945 -0.05746362]
[ 0.02453542 -0.00959853]
[0.04809796 0.04234352]
[ 0.03008823 -0.02076636]
[0.08066148 0.01775025]
[-0.08552057 -0.07529099]
[0.01086497 0.00345677]
[0.08558191 0.0815504 ]
[-0.02388736 -0.04173649]
[ 0.00273248 -0.02810228]
[0.02263122 0.01050671]
[ 0.04259423 -0.04761013]
[-0.02598479 -0.00430756]
[ 0.01640394 -0.00884217]
[0.07772917 0.06444427]
[ 0.00160133 -0.01242549]
[-0.0291207 -0.0686459]
[ 0.05506405 -0.02070796]
[-0.04536607 -0.0220674 ]
[-0.03379735 -0.06038835]
[0.02010679 0.03471484]
[-0.03791041 -0.04940111]
[-0.08214436 -0.05873575]
[-0.01757784 -0.04871209]
[-0.02841144 -0.0653463 ]
[0.00073048 0.00662176]
[0.01295654 0.03814826]
[0.01908705 0.05114006]
[ 0.02657923 -0.03915937]
[-0.06383443 -0.08881042]
[0.01860705 0.04600505]
[0.03182312 0.03464407]
[0.05329552 0.01912639]
[-0.02540949  0.02315873]
[0.00852251 0.00032959]
[0.04731644 0.02560174]
[ 0.00393737 -0.0362909 ]
[0.02827539 0.06015277]
[-0.03597986  0.0595878 ]
[-0.02522542 -0.02566389]
[-0.02552888 -0.05718274]
[ 0.05004496 -0.05597663]
[ 0.01420811 -0.07261709]
[-0.02866186 -0.08005419]
[0.02161663 0.00550502]
[ 0.05880119 -0.00294751]
[0.03594224 0.03701514]
[ 0.02656301 -0.00816699]
[0.0822994  0.04799538]
[0.02630902 0.02297031]
[0.05782794 0.04469086]
[0.06120136 0.08032616]
[ 0.00853926 -0.00843988]
[0.00524289 0.01104309]
[-0.07521379 -0.03070732]
[0.01523933 0.08528103]
[0.00031714 0.00755007]
[-0.06544838 -0.02722561]
[-0.0323484  -0.05430219]
[ 0.00730313 -0.02181688]
[0.07901453 0.06789419]
[-0.03615729 -0.05480756]
[-0.04847208  0.04834856]
[-0.05193551  0.04015314]
[0.06549841 0.05433793]
[ 0.03625809 -0.02811872]
[ 0.01948301 -0.04764228]
[-0.07187534 -0.07059315]
[-0.01240351 -0.08075045]
[0.01862871 0.01441335]
[-0.02307188  0.04903007]
[-0.10021025 -0.07684201]
[ 0.02142674 -0.00346289]
[ 0.06281707 -0.01592174]
[0.0858767  0.01897078]
[-0.04258734 -0.02103892]
[-0.05003668 -0.10435742]
[ 0.05842228 -0.00089056]
[ 0.0044492  -0.03009117]
[-0.04797626 -0.02094348]
[ 0.02591702 -0.01008578]
[ 0.02147389 -0.02763706]
[0.03529987 0.00887471]
[-0.01858028  0.02214933]
[0.09864074 0.04655896]
[-0.03719591  0.00019644]
[-0.01598932 -0.02270197]
[-0.00618109 -0.04338557]
[-0.02497858 -0.02131806]
[-0.02833098  0.01469465]
[ 0.03854116 -0.02601903]
[0.03395751 0.00924354]
[ 0.04009738 -0.03751119]
[0.05766003 0.04216663]
[-0.02389572  0.00551222]
[0.01533328 0.07538233]
[-0.05496722 -0.02039206]
[-0.00885853 -0.02442383]
[0.05154679 0.03632456]
[-0.0249225  -0.05873797]
[-0.05839047 -0.0905054 ]
[-0.03489647 -0.00593666]
[0.02827773 0.03509069]
[-0.0008557   0.03593094]
[-0.04543709 -0.01208132]
[-0.01989141 -0.00575848]
[ 0.01168634 -0.05389648]
[-0.02423799 -0.00994388]
[-0.04138361 -0.05820844]
[0.00943225 0.04325622]
[0.04622649 0.03042272]
[-0.04841277  0.01882988]
[-0.03826933  0.00825542]
[0.07397871 0.08605495]
[-0.04717524 -0.02279332]
[0.05239428 0.02524977]
[0.04137346 0.06172777]
[0.05782017 0.04280543]
[0.05652986 0.05257623]
[0.07921664 0.03557051]
[0.06072235 0.03289444]
[-0.01881435  0.05037564]
[-0.02250463 -0.06571004]
[0.0891084  0.07511805]
[0.01809548 0.02827886]
[ 0.05410729 -0.0223007 ]
[-0.00375442 -0.01114185]
[-0.01637566 -0.05471926]
[-0.01765122 -0.0019075 ]
[0.0344833  0.01717006]
[0.02280773 0.0410987 ]
[ 0.01338489 -0.00858374]
[-0.00973647 -0.00488808]
[-0.05536661 -0.0572584 ]
[-0.01577224 -0.00603948]
[ 0.04615751 -0.00612908]
[-0.0005962 -0.0315224]
[0.05153921 0.05035394]
[ 0.03283281 -0.00312543]
[ 0.00533115 -0.02940325]
[-0.05514362 -0.05216387]
[-0.03577251 -0.02962744]
[0.07496844 0.08025456]
[ 0.00534658 -0.05190715]
[0.00708888 0.06414689]
[-0.01179725 -0.0002377 ]
[0.05473957 0.02442362]
[0.02288715 0.0609314 ]
[0.07974994 0.08711215]
[0.01693393 0.01375523]
[-0.00025917 -0.05024063]
[ 0.01964731 -0.03112864]
[-0.07686521 -0.05398709]
[-0.01696129  0.06998371]
[0.08127483 0.09025587]
[-0.02255893  0.00805458]
[-0.00240297 -0.02496971]
[0.07996863 0.05728182]
[-8.12074051e-05  4.17079874e-02]
[-0.00243734 -0.0700089 ]
[-0.0943906  -0.07762728]
[-0.05762186 -0.0888564 ]
[-0.02721204 -0.05414539]
[-0.01018703 -0.05394837]
[ 0.00033302 -0.00059532]
[ 0.05605129 -0.02123424]
[-0.00056878  0.03463827]
[-0.01830364 -0.08279207]
[-0.07030695 -0.00269142]
[-0.06726461 -0.06093399]
[-0.04747656  0.03553282]
[ 0.04244796 -0.02676958]
[0.05257265 0.06576737]
[-0.02826185 -0.04696575]
[0.07056957 0.04943468]
[0.04945723 0.01155706]
[0.00599625 0.00765729]
[-0.04697216 -0.04991618]
[0.05474994 0.08635741]
[0.0289285  0.00222412]
[ 0.04490922 -0.05929453]
[-0.02506914 -0.03790153]
[-0.05978262 -0.0300109 ]
[0.08700891 0.06055538]
[0.00831706 0.03401002]
[ 0.0330481  -0.02378247]
[-0.03787159  0.01404907]
[ 0.00066385 -0.06510493]
[ 0.01261718 -0.01249458]
[-0.00571725  0.02062377]
[-0.07093649 -0.04185518]
[0.02393744 0.02095245]
[ 0.03857627 -0.04422926]
[-0.033893  -0.0039008]
[-0.04217008 -0.01575667]
[ 0.05418472 -0.04638745]
[0.08135148 0.03802681]
[ 0.00669649 -0.01404096]
[ 0.00623951 -0.03613519]
[-0.04518603  0.00349426]
[0.06398333 0.03695626]
[0.02694754 0.01116065]
[-0.04365696 -0.00059769]
[0.07699828 0.05306246]
[-0.08456978 -0.03733907]
[0.01622003 0.02397166]
[-0.04421741  0.05577881]
[-0.00069574  0.02531611]
[ 0.02152867 -0.02179267]
[0.02864801 0.00855028]
[-0.04163702  0.02098464]
[ 0.00096326 -0.0500292 ]
[-0.00542897  0.02519363]
[0.07680193 0.03163795]
[ 0.04034518 -0.01544553]
[0.02172811 0.0475891 ]
[ 0.03141454 -0.00162854]
[0.07465836 0.09328255]
[-0.01894002 -0.02937555]
[ 0.04495473 -0.01849136]
[0.05841508 0.01954598]
[-0.08339263 -0.07080567]
[-0.01976027 -0.07263571]
[-0.02019692  0.02957446]
[0.05290571 0.06632464]
[-0.06145675  0.02399911]
[ 0.01498933 -0.05041008]
[0.00713553 0.04424547]
[0.09237992 0.08323339]
[ 0.00411687 -0.03273503]
[0.02300772 0.01404337]
[0.03747494 0.01359844]
[0.03362238 0.01478428]
[-0.05936821 -0.08773117]
[-0.06194395 -0.05919799]
[-0.02582187  0.04964659]
[ 0.01179803 -0.01680033]
[0.03313849 0.03429654]
[-0.02504819 -0.05249411]
[-0.0463701  -0.07563422]
[-0.03681636  0.01669134]
[-0.00472781  0.03887588]
[0.0244605 0.0326407]
[0.00354072 0.0095153 ]
[ 0.04452805 -0.00730739]
[0.00561193 0.0326743 ]
[0.02960434 0.0611121 ]
[-0.06208536 -0.05742939]
[ 0.01220208 -0.01981226]
[0.01022583 0.05198735]
[0.02625697 0.00493865]
[-0.05141264 -0.00538448]
[0.07860264 0.0800246 ]
[-0.05540458  0.00857602]
[ 0.05781543 -0.02381739]
[ 0.05429032 -0.01633967]
[ 0.03650022 -0.04273692]
[-0.01088862 -0.01348749]
[ 0.0203193  -0.05035837]
[-0.02321429 -0.0603513 ]
[ 0.00048507 -0.01219558]
[0.05803978 0.06104708]
[-0.06463627  0.00802133]
[0.02826914 0.05053719]
[-0.01284335 -0.05471354]
[0.04424419 0.01793153]
[-0.0063372   0.04601365]
[0.02299374 0.04087921]
[0.03192467 0.02199857]
[0.02381179 0.01558188]
[0.05434316 0.06989966]
[-0.0080882  -0.05101724]
[-0.07396427 -0.05258925]
[-0.07720492 -0.01309883]
[-0.0692805  -0.03386264]
[-0.00197095  0.06898548]
[-0.08168351 -0.09410758]
[0.06949695 0.05940793]
[ 0.03808527 -0.03526871]
[0.01494793 0.011953  ]
[-0.01466206  0.00113916]
[ 0.05791518 -0.06178652]
[ 0.01864296 -0.02966343]
[0.01223627 0.03879218]
[-0.0360666   0.02900672]
[0.01718505 0.06044099]
[0.05410566 0.01103235]
[-0.05074805 -0.04547861]
[-0.03081573  0.02811053]
[0.05578841 0.09095073]
[-0.07404303 -0.06525834]
[0.07242178 0.03359528]
[ 0.01341732 -0.03292904]
[0.03279976 0.00791028]
[-0.00518941  0.00904263]
[-0.06964601 -0.01906582]
[-0.05851277 -0.0231085 ]
[-0.0418757   0.03612227]
[-0.02126996 -0.01697397]
[ 0.01744493 -0.03787779]
[0.00678162 0.01043266]
[-0.01055813  0.02088594]
[0.04259013 0.00984401]
[0.04475391 0.06322413]
[-0.04014256 -0.04145908]
[ 0.00496111 -0.01030888]
[0.04464018 0.06855736]
[-0.05066362 -0.02737939]
[-0.02166963  0.06597167]
[0.0629029  0.01134127]
[0.01854925 0.01694832]
[ 0.00930118 -0.0382918 ]
[0.01325718 0.06139851]
[0.02794448 0.02099164]
[ 0.04602225 -0.01541619]
[ 0.05194378 -0.01260632]
[0.04813703 0.06829006]
[0.04404525 0.04574905]
[-0.03607296 -0.02074681]
[0.07720091 0.05483503]
[-0.04539203  0.07853612]
[-0.07591652 -0.03947134]
[0.05122319 0.09440501]
[-0.02822284  0.04145628]
[-0.0528008  0.0071333]
[0.0269715  0.02120102]
[-0.04248464 -0.09162746]
[ 0.01345513 -0.05796229]
[0.0422569  0.04941223]
[0.06639979 0.06881955]
[-0.00774547  0.04121575]
[-0.0797677   0.01797984]
[ 0.02448965 -0.0038033 ]
[-0.05158807 -0.05439181]
[ 0.02603789 -0.08452779]
[-0.00953035 -0.05558512]
[0.03500683 0.05556375]
[0.03636871 0.00686328]
[-0.03987596  0.05310344]
[ 0.07684577 -0.01315835]
[0.00905944 0.03306661]
[ 0.0673139  -0.00361204]
[0.09129319 0.03484394]
[0.03407738 0.05382346]
[-0.06660963 -0.01007955]
[-0.01214187 -0.04132162]
[0.01526634 0.02439905]
[-0.04190653  0.00807464]
[-0.05713495 -0.02144021]
[0.05515614 0.08789081]
[-0.02352875 -0.07587291]
[-0.01987444  0.00226625]
[-0.01213461 -0.03241322]
[-0.03731281  0.04339241]
[0.02032745 0.01201731]
[-0.03223865  0.01441692]
[-0.0898941   0.02239837]
[-0.01261568 -0.01704203]
[-0.03208258 -0.06450373]
[-0.04587631 -0.0722889 ]
[-0.07600091 -0.00550238]
[0.00614549 0.00263816]
[0.06182557 0.07973921]
[-0.01379715  0.03537679]
[-0.04798602  0.01461077]
[-0.01000587 -0.03806987]
[0.03716529 0.0397844 ]
[ 0.05152075 -0.03742162]
[0.02426486 0.03995716]
[0.02378783 0.01360829]
[-0.0168914 -0.0424116]
[-0.00970569 -0.06706641]
[ 0.01105476 -0.016276  ]
[0.03372918 0.01787983]
[0.07856408 0.04888055]
[0.02864953 0.05246018]
[-0.06015519  0.05412278]
[-0.02556597  0.05785634]
[0.07900731 0.08901973]
[0.02315007 0.05049038]
[0.04212451 0.04561283]
[-0.10206247 -0.07230464]
[ 0.05607216 -0.07457392]
[0.08306148 0.02108764]
[0.02861034 0.08473733]
[ 0.07049099 -0.01192953]
[0.01209631 0.01477865]
[ 0.03528572 -0.06064092]
[0.00535368 0.00598909]
[0.07414963 0.03560983]
[-0.04273752 -0.07820981]
[0.04019493 0.06445329]
[-0.0018123  0.0708761]
[-0.01511677 -0.04320072]
[-0.08490349 -0.04836877]
[-0.07086963 -0.00410451]
[0.02149927 0.05282241]
[-0.04999188 -0.0564372 ]
[ 0.01160334 -0.07069984]
[0.04934208 0.04658834]
[-0.0733717  -0.04402255]
[0.03229465 0.01916939]
[-0.03545215 -0.00028753]
[0.02598679 0.06266489]
[ 0.02405554 -0.01179783]
[-0.02730299 -0.00544567]
[-0.06420905 -0.06951521]
[ 0.03758287 -0.02745199]
[0.00265226 0.04255578]
[-0.04460462  0.05911271]
[0.00395504 0.03527701]
[0.06161825 0.0808836 ]
[0.01328711 0.03720915]
[0.03418884 0.02839506]
[ 0.0396274  -0.01062751]
[-0.02446082 -0.0635363 ]
[0.06722156 0.02664476]
[-0.00666492 -0.03494747]
[ 0.04009703 -0.05731574]
[-0.08396816 -0.08461663]
[-0.0407683  -0.01167739]
[-0.02428552 -0.02890043]
[-0.03207888 -0.01143226]
[-0.04239828 -0.05046984]
[-0.00907521 -0.04173684]
[-0.02254103 -0.00259617]
[ 0.00710861 -0.02367172]
[ 0.01445219 -0.05281216]
[0.07063015 0.05927921]
[0.10127042 0.07239128]
[-0.06416808 -0.07602948]
[0.05877001 0.04745912]
[-0.00229157 -0.06047421]
[0.07842325 0.0955971 ]
[0.07752974 0.03294834]
[-0.0087924   0.07131825]
[0.08028917 0.05818136]
[-0.02753745 -0.04165568]
[-0.10081836 -0.04893026]
[-0.05641779  0.02389934]
[0.06148293 0.01682216]
[ 0.02253637 -0.00565462]
[0.08080858 0.0287917 ]
[0.05186997 0.04380358]
[-0.03461693 -0.07581366]
[0.06631751 0.05054978]
[-0.01580897  0.01338457]
[-0.08042226 -0.03720129]
[-0.01169651 -0.00134126]
[-0.05282932  0.02182876]
[-0.01734943 -0.0936661 ]
[0.03066585 0.06838023]
[-0.01938773 -0.0174472 ]
[-0.09489695 -0.05004556]
[-0.01740465 -0.0151165 ]
[-0.04290013  0.02797585]
[-0.02579292 -0.01466749]
[0.04036604 0.01553876]
[-0.00451535 -0.02350267]
[-0.05360694 -0.0737333 ]
[-0.02715702 -0.03000016]
[0.04561138 0.00784782]
[-0.0835213  -0.05372022]
[-0.04434579 -0.05219307]
[0.05189285 0.01381962]
[-0.03816212  0.05339113]
[0.05334466 0.05495307]
[-0.06710098  0.03815514]
[-0.04269812  0.04622365]
[-0.02611639  0.03172604]
[0.0170212  0.06851993]
[-0.01000614 -0.04887361]
[-0.0049775  0.008527 ]
[0.0694607  0.04826577]
[-0.08649194 -0.10367312]
[-0.02214947  0.01166422]
[0.02073874 0.0210937 ]
[-0.01769326 -0.00467739]
[0.00517808 0.08135539]
[-0.06476119 -0.05629047]
[0.03155028 0.01406424]
[-0.05188584 -0.0133213 ]
[ 0.02725333 -0.05600643]
[0.03318209 0.03278389]
[-0.06627854 -0.01379697]
[0.06263857 0.09648409]
[0.04141774 0.03963426]
[-0.05208579  0.05363522]
[0.00489354 0.03021671]
[ 0.07363986 -0.01489796]
[0.05771705 0.02121871]
[0.08859026 0.07157568]
[-0.03613152 -0.04083876]
[0.0527155  0.01097971]
[0.04927031 0.02834636]
[-0.01179158 -0.04819402]
[-0.05296931 -0.07655075]
[ 0.01911988 -0.06192832]
[0.09135319 0.06402437]
[-0.0003416  -0.05812649]
[-0.05358611 -0.06757795]
[-0.00447332 -0.03949374]
[0.04774308 0.04110854]
[-0.06348704 -0.02373004]
[-0.04831731 -0.03865693]
[0.04316256 0.0388708 ]
[-0.01989614 -0.04072216]
[-0.07171195 -0.0955606 ]
[-0.08474074 -0.09038781]
[0.00767227 0.03261988]
[-0.03205129  0.00151035]
[0.0177956  0.02395952]
[-0.04376713 -0.00557501]
[0.02219436 0.03257255]
[0.02872273 0.00220446]
[ 0.05634888 -0.01293877]
[ 0.02211389 -0.03965605]
[ 0.00709164 -0.02446488]
[-0.05607005 -0.02864616]
[0.01772412 0.02023235]
[-0.03461261 -0.02700099]
[ 0.02399551 -0.00580368]
[-0.08692624 -0.09109299]
[-0.05338737 -0.02572441]
[-0.00861253  0.02047304]
[-0.07345134 -0.07510877]
[0.06447725 0.01424854]
[ 0.04361745 -0.01353769]
[ 0.04242605 -0.02061891]
[0.07124878 0.08086213]
[-0.00398922 -0.00062841]
[-0.03845469 -0.0047279 ]
[-0.04304099  0.03497683]
[-0.00906485 -0.04964425]
[-0.03061155 -0.07233101]
[-0.0694323  -0.09085048]
[-0.00545618  0.0264936 ]
[-0.10050672 -0.08641928]
[-0.03811623  0.05494528]
[0.04364607 0.01000488]
[-0.06383215 -0.03294419]
[0.05746107 0.05821514]
[ 0.00280976 -0.02812253]
[0.09975696 0.07424838]
[0.04242411 0.07997963]
[-0.00306477  0.05238615]
[-0.03248695 -0.04111217]
[0.0273256  0.02875553]
[-0.02633904 -0.01152329]
[ 0.03491127 -0.04210009]
[0.03923309 0.01302053]
[-0.0003855  0.002725 ]
[-0.07805394 -0.00360183]
[-0.00446273 -0.01897345]
[-0.02047429  0.06433433]
[0.01615934 0.03570322]
[-0.08446992 -0.04702433]
[0.03048374 0.05326634]
[-0.01211111 -0.09071406]
[-0.07641751 -0.09580251]
[ 0.02449304 -0.02440876]
[0.03583674 0.01120884]
[0.02018676 0.04164613]
[-0.02738269  0.01008299]
[0.00815601 0.02016978]
[ 0.03355705 -0.02534301]
[-0.07003345 -0.09820226]
[-0.02462494 -0.0634931 ]
[0.03232098 0.03885023]
[-0.06386078  0.02691772]
[0.06711687 0.08097873]
[0.02480694 0.065183  ]
[-0.09424771 -0.06262495]
[0.0486993 0.0978531]
[-0.02707902 -0.01248517]
[-0.04681441 -0.02478311]
[-0.02631418 -0.03548809]
[0.01353928 0.03033523]
[0.06735806 0.07150496]
[0.0795083  0.00440102]
[-0.06435244 -0.02544962]
[ 0.04005646 -0.03938971]
[-0.03113442 -0.00436888]
[ 0.07279382 -0.0015338 ]
[0.01360465 0.00656434]
[-0.04393747 -0.0595055 ]
[-0.0991907  -0.07289266]
[-0.00508499  0.03989006]
[-0.09890847 -0.04601992]
[-0.0644548   0.03733258]
[-0.01283997 -0.05386905]
[ 0.04287952 -0.03036449]
[-0.01210923  0.05527299]
[-0.07819437 -0.08138064]
[ 0.0604757  -0.00804022]
[0.00264943 0.0395242 ]
[-0.03140582 -0.0763857 ]
[ 0.02525743 -0.04155415]
[-0.05590588 -0.07654468]
[-0.05771341 -0.05088526]
[-0.00173168 -0.03393873]
[0.04288534 0.07294986]
[ 0.00680521 -0.01342872]
[0.06650273 0.08110005]
[-0.00648522  0.01787342]
[-0.01431469 -0.04300122]
[0.00097047 0.0359645 ]
[0.02558957 0.06624829]
[0.03039462 0.04866006]
[-0.04852813  0.00999544]
[ 0.02543431 -0.03276424]
[0.01256099 0.01753108]
[-0.04179587  0.00658535]
[-0.03634013  0.00576302]
[-0.01834011 -0.01990831]
[-0.02600249 -0.03213985]
[0.08623072 0.0871048 ]
[-0.0396022  -0.06780966]
[-0.01711117 -0.04941413]
[ 0.00432394 -0.02777507]
[-0.09209778 -0.08419239]
[ 0.02283743 -0.02248281]
[-0.02989438 -0.07080693]
[-0.06021595 -0.04124195]
[-0.03891688  0.01578458]
[-0.0476793   0.02061632]
[ 0.03203962 -0.04722663]
[-0.0732377  -0.02004011]
[0.02776176 0.0291898 ]
[0.00248124 0.0018055 ]
[0.02352622 0.02915223]
[-0.07302666 -0.09139269]
[0.02339539 0.06895274]
[-0.07057456 -0.00183443]
[0.01691703 0.06189847]
[-0.07363805  0.01026065]
[0.0366811  0.07131362]
[0.01020976 0.03520406]
[0.00127905 0.04657244]
[ 0.00771609 -0.04911108]
[-0.06803663 -0.07237001]
[-0.07971055 -0.05012607]
[-0.00575429  0.02457907]
[-0.0236318  -0.00509306]
[0.07344477 0.06769769]
[0.05866361 0.04913324]
[-0.00640746  0.0263459 ]
[ 0.03367733 -0.04266368]
[-0.02959073 -0.03329769]
[0.0116384  0.01065985]
[-0.02938939  0.0460845 ]
[-0.02362923  0.01752938]
[0.07018706 0.08674124]
[0.07385212 0.05333389]
[0.01953341 0.02536365]
[-0.01410621 -0.01678316]
[-0.04356075 -0.00255169]
[-0.03391861 -0.03147865]
[0.05969007 0.02786933]
[ 0.03216523 -0.02468297]
[-0.00640578 -0.00164552]
[-0.03406915 -0.02542166]
[-0.04069863 -0.04819594]
[-0.0602186   0.03607767]
[-0.05252668 -0.00524799]
[0.02420033 0.0588142 ]
[ 0.05516636 -0.01325963]
[-0.01819187 -0.07732337]
[-0.02772502 -0.05852046]
[-0.00694307 -0.01737947]
[ 0.02185173 -0.02982903]
[0.0653186  0.08482612]
[-0.04541654 -0.06968834]
[ 0.01329039 -0.05549772]
[-0.01566231 -0.08187389]
[ 0.01952854 -0.05319669]
[-0.0552733  -0.06338964]
[0.06109391 0.0224795 ]
[-0.08400708 -0.05148609]
[-0.01301428 -0.02061993]
[-0.07790123 -0.09576365]
[ 0.04623769 -0.03475558]
[-0.05888983 -0.04638062]
[ 0.00258051 -0.01125349]
[0.05282612 0.05686429]
[0.02173288 0.04909669]
[-0.07635898 -0.03667622]
[-0.01388667  0.02804379]
[0.06200091 0.05173249]
[-0.06388781  0.0059265 ]
[0.01227693 0.01072419]
[-0.08998885 -0.04989705]
[-0.07538034 -0.03707412]
[ 0.0242035  -0.01718586]
[0.02066143 0.02764813]
[-0.03801283 -0.01665262]
[-0.08199897 -0.07529831]
[ 0.0366273  -0.04213938]
[-0.03922513  0.05788961]
[-0.05775937  0.00527739]
[-0.04486207 -0.04545051]
[-0.01920169  0.02011319]
[ 0.05329123 -0.02843021]
[-0.02323983 -0.02542084]
[0.04835077 0.0671227 ]
[-4.95216801e-02 -2.32399387e-05]
[0.02823239 0.02086381]
[ 0.0020001  -0.04839739]
[ 0.0134498  -0.06716725]
[-0.00698345 -0.04058931]
[0.05030606 0.06118377]
[-0.03200009 -0.01534401]
[0.04005886 0.04098043]
[ 0.01591238 -0.04485596]
[ 0.03764804 -0.00823077]
[-0.04197664 -0.05362532]
[0.03484456 0.07205263]
[-0.03047545 -0.05251647]
[-0.07359412 -0.08268873]
[0.01687406 0.00651316]
[-0.10907651 -0.07175443]
[ 0.07257092 -0.01704033]
[-0.00788957  0.02936276]
[ 0.03171938 -0.06685031]
[-0.05329818  0.0576416 ]
[-0.00042817  0.01001862]
[ 0.05660622 -0.02092024]
[-0.03270619  0.02893481]
[0.02379933 0.029439  ]
[-0.0060337   0.00639369]
[-0.02950308  0.00613806]
[-0.03143783 -0.01685367]
[ 0.00445065 -0.02052132]
[-0.02044232  0.04811154]
[0.02632924 0.02802937]
[0.04073453 0.05367961]
[ 0.01497235 -0.03661737]
[0.02244906 0.04404385]
[-0.03004919  0.04455296]
[-0.01605619 -0.08112785]
[-0.05384502 -0.02050048]
[0.06460929 0.05167509]
[ 0.04808828 -0.04274339]
[ 0.02182973 -0.06838534]
[-0.05125368 -0.03563434]
[0.0252973  0.04573362]
[-0.04756718 -0.04569779]
[-0.08787468 -0.03339527]
[-0.02239675  0.06200776]
[-0.09300394 -0.04898469]
[-9.34915373e-05 -4.94627846e-03]
[-0.06820171 -0.07159007]
[0.0337009  0.06567009]
[-0.03106659 -0.07580481]
[-0.05236818 -0.03374788]
[ 0.04849049 -0.04626816]
[0.01503654 0.00294184]
[0.01100978 0.01614241]
[-0.02727374 -0.04428096]
[ 0.01021679 -0.0292744 ]
[0.03403449 0.09078016]
[-0.09876411 -0.05033631]
[0.00084692 0.06095165]
[-0.02224528 -0.04762506]
[-0.03621329  0.03297515]
[0.00615176 0.02772554]
[-0.04444807 -0.01924748]
[0.02230919 0.0235795 ]
[-0.01221086  0.05745478]
[-0.00070624  0.03496405]
[-0.07387902  0.02932373]
[0.07169402 0.02995889]
[ 0.04463573 -0.02374208]
[-0.0202625  -0.06351956]
[0.07765717 0.04060853]
[ 0.06035632 -0.01702117]
[-0.03524447  0.05969117]
[-0.00840412  0.04416932]
[-0.00283986 -0.03775738]
[0.05959564 0.10493255]
[0.03848432 0.02204619]
[ 0.03685561 -0.02501692]
[ 0.05923614 -0.06247158]
[0.02308094 0.02733596]
[0.03942903 0.05000254]
[-0.03237404 -0.02791412]
[-0.00025529 -0.0040072 ]
[ 0.01289667 -0.00363173]
[0.05408396 0.05576562]
[ 0.00516654 -0.06589211]
[-0.02524592  0.03362833]
[ 0.03057491 -0.04134701]
[-0.0891269  -0.06529556]
[0.07038511 0.09171731]
[0.04791332 0.06002859]
[-0.05597131  0.03677582]
[0.00562131 0.00041793]
[0.01824333 0.07168434]
[-0.07843058 -0.07241192]
[-0.04217036 -0.02015009]
[-0.06495002 -0.07257793]
[0.02009588 0.05015486]
[ 0.0031013  -0.05936723]
[-0.06473541 -0.01859355]
[-0.05160177  0.02133167]
[-0.03571363 -0.02680518]
[0.04112614 0.07747944]
[-0.02115191  0.0429209 ]
[-0.03849897 -0.05896118]
[0.00292862 0.04953989]
[-0.0919276 -0.0719209]
[ 0.01173939 -0.01203537]
[0.01228776 0.04777865]
[-0.05673348 -0.04540772]
[-0.06747825 -0.07155535]
[-0.01315779 -0.03945673]
[ 0.04099909 -0.05091759]
[0.07533854 0.02166329]
[ 0.03468295 -0.0565295 ]
[-0.03342567  0.00024983]
[-0.05330574 -0.01875261]
[-0.06682142 -0.0098352 ]
[ 0.02386797 -0.02275962]
[0.06431566 0.05360499]
[-0.03075574 -0.0196235 ]
[-0.018774    0.00468293]
[-0.04401072 -0.02617699]
[0.04950072 0.00160786]
[0.05242952 0.05924875]
[0.10376128 0.08081394]
[ 0.04288658 -0.01745917]
[-0.02305905 -0.02031884]
[-0.05885028 -0.0966128 ]
[-0.01155791  0.04269897]
[-0.07271175 -0.07639841]
[-0.01983792  0.01877946]
[0.02815952 0.04371036]
[0.04232617 0.07296728]
[-0.01800909  0.02257349]
[ 0.00813811 -0.03947024]
[-0.04515677 -0.06202758]
[0.02801117 0.02782055]
[-0.02937063 -0.01892617]
[0.05660232 0.03571215]
[0.01995872 0.01494246]
[ 0.00024747 -0.072752  ]
[0.07639195 0.10929962]
[-0.06235417 -0.02167765]
[ 0.03976342 -0.00222125]
[-0.01009428  0.06575159]
[ 0.02836768 -0.07040576]
[-0.00502115 -0.01746801]
[-0.06547535 -0.04531927]
[-0.10416694 -0.05658833]
[-0.00682886  0.09408257]
[ 0.0107677  -0.03975322]
[ 0.05184527 -0.02138345]
[-0.04368529 -0.05486058]
[ 0.01469293 -0.01230909]
[ 0.02458302 -0.06525443]
[ 0.00185877 -0.01050207]
[ 0.06115517 -0.02530973]
[0.03323765 0.01800064]
[0.0382441  0.00952606]
[0.00330081 0.00096572]
[ 0.00260031 -0.01508315]
[0.02634532 0.00338001]
[-0.07454815  0.00709657]
[0.05471652 0.05343413]
[-0.04352149  0.01449934]
[-0.01570415 -0.01905651]
[-0.05864934  0.04985492]
[ 0.01582201 -0.00287067]
[ 0.00748822 -0.02790936]
[0.01306146 0.03716162]
[ 0.0136717 -0.0264691]
[0.07311756 0.00504957]
[-0.02476583 -0.08535222]
[-0.04652134 -0.0403359 ]
[-0.07731457 -0.02288234]
[-0.04943192 -0.05729338]
[0.04220635 0.06307744]
[-0.01882206 -0.0495939 ]
[0.03980912 0.06188569]
[-0.05528321 -0.0289593 ]
[-0.0937368 -0.0255555]
[ 0.00756408 -0.0174309 ]
[-0.03594293 -0.03306236]
[-0.05528734 -0.05725662]
[-0.02032484  0.03408048]
[ 0.03540447 -0.01136568]
[ 0.01933956 -0.0577015 ]
[ 0.03206807 -0.020954  ]
[-0.00428386 -0.07632587]
[0.03041877 0.03458568]
[-0.03842575 -0.04620176]
[ 0.01351564 -0.01607855]
[0.04145742 0.04757577]
[-0.07671189 -0.07012663]
[ 0.01591611 -0.0131133 ]
[0.03874933 0.0226714 ]
[0.04140537 0.04435908]
[ 0.02927374 -0.00589818]
[ 0.01837478 -0.05278947]
[-0.05617926 -0.04918679]
[-0.02911733  0.05510934]
[0.05494199 0.04972783]
[ 0.00119734 -0.00478807]
[0.02142695 0.01412046]
[ 0.04958737 -0.04581516]
[0.02093005 0.08009718]
[0.01941267 0.04443579]
[0.02027324 0.03333284]
[-0.0084094   0.02908833]
[-0.03651174  0.02007749]
[-0.08210719 -0.09649639]
[0.00628773 0.07598053]
[-0.02816598 -0.04228846]
[-0.05658163  0.00204489]
[0.05683796 0.06825372]
[-0.03672618 -0.05394077]
[-0.05568242  0.03935761]
[0.04202172 0.07152877]
[0.05895789 0.01120961]
[0.04088198 0.04219928]
[-0.02444777 -0.0603262 ]
[-0.02637955 -0.0071085 ]
[-0.00360485  0.03309898]
[0.01331955 0.04656524]
[0.09319304 0.05852573]
[0.07174693 0.04527659]
[0.09344481 0.06445278]
[-0.02668476  0.07895969]
[ 0.03155873 -0.02063464]
[-0.04154743  0.03848884]
[0.01775213 0.00415626]
[-0.06147604 -0.00124073]
[0.00672642 0.0541533 ]
[-0.06616134 -0.00734252]
[-0.01265736  0.00474713]
[-0.00262543  0.0741932 ]
[-0.01872589 -0.0220446 ]
[-0.0247841   0.04743476]
[-0.05191283 -0.0391596 ]
[-0.00603023 -0.02824855]
[ 0.06293277 -0.06485856]
[-0.06992738 -0.07101364]
[ 0.0044265  -0.00267241]
[0.03692881 0.0849862 ]
[0.00602366 0.00511857]
[-0.04213664  0.01571228]
[-0.02420797 -0.06780843]
[-0.05933562 -0.04564311]
[-0.06685827 -0.0726429 ]
[-0.03074056  0.04893586]
[0.03265525 0.00540949]
[-0.03989055 -0.03745603]
[-0.04427665 -0.00887483]
[-0.06710916 -0.05201969]
[-0.01739544 -0.08212603]
[-0.03484243 -0.03380471]
[-0.04921927 -0.05825315]
[-0.04639342  0.06102123]
[-0.035984   -0.01667855]
[-0.07376242 -0.03975251]
[ 0.0424818  -0.00647365]
[-0.05603162 -0.09600946]
[ 0.06545099 -0.04069397]
[0.0799991  0.09026843]
[-0.06769684  0.00043347]
[-0.08903511 -0.0650132 ]
[ 0.00176647 -0.00819721]
[0.06006411 0.10106272]
[-0.08074821 -0.02263627]
[-0.04370482 -0.02037326]
[-0.0178858  0.0166602]
[-0.04970106  0.00335334]
[0.04740019 0.01675834]
[0.01189253 0.06484017]
[-0.0421288  -0.08343112]
[-0.00968359 -0.05259148]
[-0.01333334 -0.05514721]
[ 0.07882244 -0.01403068]
[0.02477344 0.05851712]
[0.04175869 0.05831738]
[-0.06175518 -0.05812958]
[-0.04756861 -0.05367483]
[ 0.04263714 -0.0103696 ]
[-0.03743469  0.03185209]
[-0.02732014  0.03281102]
[0.07627131 0.01112753]
[0.02659933 0.03991182]
[0.05972203 0.09610326]
[0.086403   0.08675602]
[0.00119403 0.04520146]
[0.03253313 0.03517103]
[-0.01227196  0.06964547]
[0.07535116 0.0400437 ]
[-0.02483292 -0.02270746]
[-0.06511553 -0.07083931]
[0.00015862 0.01135279]
[-0.04025159 -0.02091485]
[-0.06345807 -0.00430282]
[0.07686126 0.08196954]
[-0.10498494 -0.07580323]
[-0.09281503 -0.04038443]
[0.07835146 0.00985788]
[-0.01460063 -0.02180653]
[0.05346052 0.02784335]
[-0.06887109 -0.01831188]
[-0.04674534  0.00924079]
[-0.07103021 -0.08715813]
[ 0.03287424 -0.00995039]
[0.08142823 0.02460376]
[0.06516905 0.0643597 ]
[ 0.03193609 -0.02936924]
[-0.01251089 -0.05049071]
[ 0.04022258 -0.03789632]
[0.09104223 0.09513156]
[-0.00904342 -0.0418398 ]
[0.01313026 0.01104083]
[-0.02993604 -0.01571651]
[0.05449325 0.01322384]
[0.06257358 0.06001777]
[ 0.00402689 -0.0153961 ]
[0.02410174 0.04949221]
[-0.03361648  0.02283525]
[-0.06510495 -0.03703827]
[0.06658934 0.02178644]
[-0.00921625  0.04532097]
[0.03931365 0.00370395]
[0.09042591 0.07734883]
[-0.00667633 -0.04153901]
[-0.01389814 -0.01277903]
[0.02829043 0.02321629]
[0.05436935 0.0727014 ]
[0.03070875 0.07900045]
[-0.06148179 -0.02274281]
[-0.04997449  0.018799  ]
[0.04738973 0.01860677]
[-0.02959714 -0.07049763]
[-0.00527118 -0.03084071]
[-0.04173018  0.00493842]
[ 0.02972072 -0.00681611]
[-0.04272152 -0.01780569]
[-0.03637718  0.01075682]
[0.02253393 0.06484955]
[-0.0480748   0.00947081]
[0.05538348 0.05070356]
[ 0.00303988 -0.00152701]
[-0.00092209 -0.06421909]
[ 0.06838145 -0.01826531]
[-0.00349823 -0.04253368]
[-0.04525047 -0.0229559 ]
[-0.04339725  0.00194543]
[-0.05911022 -0.03659451]
[-0.02219651 -0.00770273]
[-0.03676917  0.06357461]
[0.02833391 0.02089885]
[0.0478877 0.0076591]
[0.02853664 0.03192498]
[-0.04867766  0.01320395]
[-0.07239172 -0.02628639]
[-0.00459135 -0.04403571]
[0.04966392 0.07771552]
[-0.03616192 -0.06212654]
[-0.07249874 -0.09145011]
[0.00406218 0.02532511]
[ 0.00434021 -0.02472819]
[-0.00809334  0.03979773]
[ 0.01673786 -0.00041754]
[0.06118201 0.04055102]
[-0.03179837 -0.01884885]
[-0.02069088 -0.03193177]
[0.03674899 0.05304221]
[-0.03060854 -0.01116386]
[ 0.06886221 -0.02435241]
[0.05469008 0.05938959]
[ 0.0160754  -0.02439822]
[-0.00775636  0.01656982]
[0.04055643 0.06813201]
[-0.01915721 -0.00280346]
[-0.00348956  0.0061109 ]
[0.01696821 0.06709831]
[0.02563282 0.01583428]
[-0.01235503 -0.03936396]
[-0.05106107 -0.02908973]
[-0.04264826 -0.04380736]
[-0.04154403 -0.02931792]
[-0.04255554 -0.02416502]
[ 0.02226471 -0.03655654]
[ 0.065428   -0.01914414]
[-0.06092203  0.01174835]
[-0.04766246 -0.03580152]
[0.03109069 0.06233504]
[0.04957299 0.01387796]
[0.06704304 0.07178315]
[-0.0396667   0.01308424]
[0.04116488 0.03319511]
[-0.03383065 -0.0763158 ]
[-0.0422011  -0.07536802]
[-0.01700722  0.03440468]
[-0.01952313 -0.04642572]
[ 0.05486183 -0.03300528]
[ 0.00915597 -0.01668642]
[-0.0661323  -0.02401246]
[-0.03169883  0.00432076]
[-0.07089269 -0.04759338]
[-0.0386731  -0.05467655]
[ 0.03563914 -0.03955431]
[-0.03139815 -0.08286376]
[0.07581836 0.05554902]
[0.08354743 0.10238185]
[-0.01215185 -0.03116741]
[0.02798381 0.05577046]
[ 0.03393645 -0.01900104]
[-0.00794496  0.04550436]
[-0.05559833 -0.00342805]
[0.0570222  0.02010285]
[-0.03507973 -0.026644  ]
[ 0.04162228 -0.0071841 ]
[-0.04356868 -0.02479881]
[0.05257472 0.07841852]
[ 0.04311415 -0.00482556]
[-0.03853395  0.00927438]
[ 0.01211128 -0.03624219]
[-0.00931571 -0.01588937]
[-0.01329445 -0.02510533]
[-0.01981279  0.02554707]
[-0.07654491 -0.01707502]
[ 0.04008445 -0.0232041 ]
[ 0.02886774 -0.01283166]
[-0.01588676  0.0106459 ]
[-0.04952254  0.01579927]
[ 0.04935091 -0.03338481]
[ 0.00633912 -0.01151503]
[0.02753281 0.03054072]
[-0.07766597 -0.05295356]
[0.02707591 0.02540336]
[0.06008552 0.06060194]
[-0.09554103 -0.06475458]
[-0.02591719 -0.02320792]
[ 0.03474761 -0.02878181]
[0.07873759 0.07106237]
[-0.05575406  0.00014369]
[ 0.05111942 -0.04169847]
[-0.07727639 -0.02251159]
[0.04700527 0.00363503]
[-0.07833612  0.00943434]
[-0.05619529 -0.05505792]
[-0.03168669  0.02702339]
[-0.06902391 -0.02660575]
[-0.0206303  -0.04601554]
[-0.02889803  0.04135069]
[-0.0477756   0.03611076]
[-0.01911353  0.05684056]
[-0.01076456  0.01450109]
[-0.07577254 -0.09751403]
[-0.0563264  -0.07003092]
[0.00083354 0.01536889]
[0.02466717 0.01180849]
[-0.04230888 -0.06942215]
[ 9.23065534e-05 -2.21757655e-03]
[-0.04209017 -0.06267089]
[-0.04085726  0.00130668]
[0.06243352 0.0468872 ]
[ 0.00342319 -0.01941202]
[-0.04488162 -0.02634655]
[0.0459701  0.07678599]
[ 0.0250106  -0.03602038]
[-0.01881348  0.05814672]
[ 0.02497232 -0.03478839]
[0.04283741 0.06424781]
[-0.03743659 -0.07341796]
[ 0.00178455 -0.05421542]
[-0.06428029 -0.06875295]
[0.07273473 0.06816637]
[-0.02712342  0.02503221]
[ 0.00596748 -0.02006375]
[-0.05411145 -0.05781291]
[-0.07953132 -0.05254478]
[0.03263333 0.06173983]
[-0.06386952 -0.05274506]
[-0.00769231 -0.04535267]
[ 0.00709417 -0.01465467]
[-0.05818418  0.02142624]
[-0.06454026 -0.04874662]
[0.02543753 0.06052621]
[-0.02915509  0.04338226]
[0.00716601 0.04569045]
[0.05551188 0.01644742]
[-0.03706245 -0.01823784]
[-0.04059102 -0.00869104]
[0.02287549 0.00295383]
[-0.01569896 -0.06456861]
[-0.03188071 -0.04752235]
[ 0.00277148 -0.01164796]
[0.0580369  0.04941118]
[-0.00064738  0.01973124]
[-0.04413753 -0.03302901]
[0.0636846  0.06929064]
[-0.02982017  0.00853583]
[0.04878192 0.04054985]
[-0.05167651 -0.07381083]
[ 0.04038784 -0.0080378 ]
[-0.0069769  -0.04479642]
[ 0.0098383  -0.02130624]
[ 0.03814534 -0.02951616]
[0.0300452  0.05289941]
[-0.06996716 -0.0327145 ]
[-0.04905418 -0.07731834]
[0.04071387 0.01372884]
[ 0.05584061 -0.01271026]
[-0.05103389 -0.03405225]
[ 0.01790983 -0.03223394]
[-0.07901502 -0.07900508]
[0.02821606 0.01179327]
[0.00095575 0.03231346]
[-0.04837424 -0.00676668]
[-0.06939713 -0.0660634 ]
[0.08305628 0.0336337 ]
[-0.01394271 -0.04661479]
[-0.07330026 -0.02299687]
[ 0.00719023 -0.05010291]
[-0.01782541 -0.04918179]
[0.07267545 0.02569815]
[0.05112003 0.0479056 ]
[0.03963766 0.04742684]
[-0.01507817 -0.0559556 ]
[0.05293934 0.07065955]
[-0.01539092  0.0459809 ]
[0.01840501 0.02114268]
[-0.01764461  0.01429821]
[-0.00073896  0.04256372]
[ 0.01880197 -0.05036776]
[-0.04808841  0.03040926]
[-0.06720426 -0.0668476 ]
[0.05623853 0.09774315]
[-0.10797611 -0.07041028]
[-0.0686216  -0.04491321]
[-0.01844257 -0.02968229]
[0.03797751 0.07041805]
[0.01486306 0.00691314]
[ 0.05711019 -0.04884946]
[-0.05462218 -0.0673943 ]
[-0.06094214 -0.08091749]
[-0.0515391  -0.01747783]
[0.04294421 0.09931   ]
[0.07104066 0.04179714]
[ 0.04800559 -0.0061108 ]
[0.0178296  0.01081992]
[-0.02183718 -0.02617495]
[-0.05089462 -0.02965277]
